68 128
15 -0.168885 -0.016931 0.096172 0.002701 -0.114479 0.106366 -0.030198 -0.061369 -0.069429 0.002858 0.020251 0.239614 -0.064036 -0.107941 0.028554 0.026738 -0.244240 -0.171567 0.032276 -0.017208 0.120505 -0.052061 -0.128255 0.337658 0.183166 -0.031809 0.076446 -0.005586 -0.156996 -0.159886 -0.271868 0.174529 0.111249 -0.255473 -0.117000 -0.147420 0.127326 -0.107016 0.147501 0.152311 -0.114288 0.161995 0.045303 0.047620 0.051744 0.103530 -0.042616 -0.054117 -0.289553 0.046949 0.296974 0.045876 -0.057469 -0.156161 0.215961 -0.270680 -0.274247 -0.129745 -0.024224 -0.095724 0.077494 -0.194365 -0.068479 -0.026260 0.138785 0.024887 -0.018462 0.176490 -0.053723 -0.169598 0.239314 -0.389398 0.188220 -0.119435 -0.060038 -0.166534 0.212699 -0.119533 -0.147855 -0.187334 0.249032 -0.116271 0.019104 -0.435789 -0.080046 -0.025217 0.030899 0.015004 0.177864 0.027737 0.110021 0.103598 -0.044019 0.272012 -0.304826 0.059763 -0.032830 0.106620 -0.220278 0.180564 0.052479 0.203144 -0.145662 -0.204983 -0.145486 -0.015976 -0.009586 0.105622 0.003890 0.141183 0.168178 0.228720 -0.074464 -0.214033 0.025245 0.280198 -0.075835 0.189074 -0.192489 0.253984 0.054833 -0.104763 -0.094615 -0.111801 -0.113746 0.007354 -0.119291 0.188213
23 -0.137709 -0.000782 0.063163 -0.054971 -0.123133 0.119789 -0.049430 -0.050710 -0.067025 -0.080827 0.015455 0.239010 -0.064061 -0.135731 0.016453 0.071072 -0.294720 -0.168894 0.081615 -0.008955 0.154334 -0.020635 -0.139742 0.410514 0.060881 -0.078137 0.087198 -0.000160 -0.156612 -0.154604 -0.271037 0.072351 0.103056 -0.265263 -0.189323 -0.219127 0.110220 -0.060838 0.114980 0.118474 -0.061449 0.145436 0.004549 0.057012 0.144699 0.172286 0.013780 -0.050293 -0.367454 0.121867 0.289119 0.085161 -0.067706 -0.282584 0.261131 -0.340635 -0.354307 -0.114347 0.051116 -0.101761 0.040872 -0.225716 -0.098284 0.002667 0.206203 0.011670 -0.071930 0.134117 -0.018285 -0.152511 0.259118 -0.422796 0.134587 0.047530 -0.301854 -0.015199 0.201356 0.000836 -0.035447 -0.119199 0.156346 -0.141891 0.007483 -0.450546 -0.153389 0.065620 -0.021266 -0.059145 0.130499 -0.084568 0.097825 0.116372 -0.076912 0.361070 -0.309494 0.078919 -0.056259 0.038834 -0.206975 0.125377 0.046953 0.195099 -0.049731 -0.303951 -0.121674 -0.024010 0.040863 0.069428 -0.066325 0.142348 0.178568 0.149024 -0.077728 -0.219582 0.131420 0.225695 -0.157805 0.251647 -0.222105 0.208543 -0.015055 -0.017026 -0.176399 -0.139198 -0.051877 0.057443 -0.146372 0.182056
16 -0.111060 -0.026123 0.078382 -0.018189 -0.136701 0.125675 -0.020044 -0.046695 -0.100488 -0.041277 0.024974 0.256417 -0.037586 -0.037339 0.031575 -0.015916 -0.259308 -0.189958 -0.018426 0.050758 0.136818 -0.059479 -0.084544 0.308646 0.149811 -0.003181 0.052804 0.009804 -0.129884 -0.163214 -0.276501 0.131385 0.148101 -0.189279 -0.089929 -0.137782 0.100861 -0.079227 0.102626 0.106861 -0.107325 0.121368 -0.039416 0.060947 0.061820 0.145878 -0.052224 -0.033345 -0.319216 0.094962 0.268498 0.002996 -0.061308 -0.136613 0.261761 -0.207634 -0.285165 -0.149526 0.016890 -0.170941 0.041798 -0.188361 -0.049627 -0.131957 0.151617 0.016031 -0.097049 0.131972 -0.039378 -0.175951 0.135013 -0.479930 0.069607 -0.047915 -0.200537 0.003529 0.125441 -0.032981 -0.058078 -0.201695 0.164584 -0.104787 0.028401 -0.399831 -0.070834 -0.020045 0.062096 -0.058701 0.164793 0.019672 0.067934 0.013327 -0.039115 0.338829 -0.292517 0.146245 -0.067122 0.167800 -0.199774 0.147736 0.086000 0.204504 -0.117647 -0.196712 -0.164968 0.048251 -0.039579 0.100630 -0.073216 0.173229 0.210529 0.188477 -0.059745 -0.234365 0.071955 0.203708 -0.113954 0.217082 -0.238833 0.276770 0.004189 -0.027600 -0.169471 -0.096451 -0.055965 -0.004198 -0.127522 0.178767
19 -0.151950 -0.028862 0.104332 -0.054368 -0.181104 0.202885 -0.041599 -0.103156 -0.132154 -0.102624 0.029991 0.258919 -0.082873 0.021756 0.010347 0.009946 -0.240720 -0.187426 0.005085 0.048524 0.135161 -0.021225 -0.170743 0.350556 0.069511 -0.033089 0.039053 0.003580 -0.137477 -0.246767 -0.278289 0.075414 0.132186 -0.231322 -0.086168 -0.119553 0.057114 -0.062688 0.150971 0.100889 -0.111293 0.094601 -0.002586 0.033768 0.103382 0.167681 -0.008094 -0.019494 -0.381357 0.017026 0.292084 0.020153 -0.127682 -0.161066 0.294594 -0.255308 -0.317602 -0.122101 0.030388 -0.179905 0.039850 -0.193213 0.018766 -0.154294 0.078591 -0.012242 -0.102443 0.103949 -0.021395 -0.213433 0.134242 -0.448692 0.078768 -0.004074 -0.184404 -0.018339 0.108336 -0.046926 -0.102611 -0.243103 0.191589 -0.122435 0.029100 -0.394695 -0.095326 -0.042427 0.053023 -0.056585 0.137426 -0.004452 0.097819 0.086821 -0.009404 0.346540 -0.309279 0.150819 -0.011896 0.164428 -0.213574 0.156174 0.106606 0.173815 -0.151657 -0.255131 -0.186316 0.012674 -0.058485 0.098758 -0.016373 0.141103 0.163499 0.170354 -0.012079 -0.237830 0.074090 0.240021 -0.091154 0.262688 -0.240130 0.268009 0.007034 -0.043321 -0.099619 -0.068545 -0.052877 -0.004412 -0.135742 0.218162
21 -0.123167 0.002713 0.059588 -0.051030 -0.208501 0.081870 -0.003736 -0.068912 -0.090766 -0.012988 0.057642 0.258962 -0.051363 -0.078823 -0.011349 0.067150 -0.290435 -0.234238 0.035659 0.021255 0.203731 -0.050454 -0.167252 0.370989 0.169910 -0.016997 0.060621 0.000185 -0.166458 -0.192989 -0.293253 0.073182 0.142511 -0.273374 -0.174863 -0.203657 0.139318 -0.044969 0.126383 0.124545 -0.108760 0.108179 -0.036255 0.080725 0.078745 0.119265 0.006984 -0.032552 -0.285419 0.038499 0.292945 0.016036 -0.092814 -0.212075 0.274613 -0.231445 -0.307957 -0.085155 0.035061 -0.058268 0.000859 -0.121022 -0.017653 -0.028355 0.176838 0.030091 -0.051743 0.146610 -0.070227 -0.202275 0.195979 -0.366145 0.174556 -0.144526 -0.138031 -0.119769 0.190530 -0.139343 -0.095609 -0.129134 0.178921 -0.085675 0.059925 -0.318628 -0.126571 0.010077 0.039723 -0.024513 0.187592 -0.016430 0.023288 0.060100 -0.110287 0.270253 -0.215983 0.047781 -0.012396 0.125232 -0.169299 0.115207 0.105469 0.190507 -0.047628 -0.182766 -0.110633 0.079562 0.000695 0.069825 -0.076360 0.145638 0.210238 0.177562 -0.030883 -0.157630 0.084088 0.271043 -0.152891 0.245211 -0.144284 0.211221 0.031982 -0.052478 -0.233335 -0.179821 -0.119317 0.080115 -0.160792 0.221078
47 -0.092043 -0.192178 -0.212343 0.064847 0.048832 -0.048379 -0.011819 0.044403 -0.399249 -0.091435 0.287509 0.184974 -0.106339 -0.119501 0.083267 -0.161072 -0.039769 -0.108035 0.022235 0.331238 0.082179 0.077342 -0.137372 0.247179 0.381534 0.058590 -0.070576 0.011893 -0.344866 -0.239372 -0.303360 -0.025198 0.012375 -0.221377 -0.003494 0.059231 0.026669 -0.073977 -0.111982 0.143277 0.156344 0.121095 0.030459 0.093590 -0.062408 0.237767 -0.152133 -0.217660 -0.387150 -0.083126 0.178906 0.085184 -0.193284 -0.228980 0.344606 -0.315417 0.079876 0.073834 -0.245484 -0.381381 -0.119563 -0.033039 -0.132615 0.003797 -0.278306 -0.117115 -0.208826 0.069273 0.102115 -0.008770 -0.071235 -0.028352 0.264498 -0.195763 0.041298 -0.359759 -0.140565 -0.072320 0.141948 0.002835 0.153517 -0.081398 -0.156008 -0.026536 0.145532 -0.007349 0.006756 -0.092627 0.148650 0.000721 0.059591 -0.073622 0.072427 0.182339 -0.037474 -0.049474 -0.027301 0.029794 -0.297844 0.054999 -0.104250 0.187779 -0.077182 -0.122953 -0.277561 0.440352 0.000375 0.325492 -0.049430 0.316695 0.023255 0.098144 0.125738 -0.040705 -0.010114 0.107187 -0.141479 -0.213394 0.158332 0.059072 -0.066160 0.002701 -0.164066 0.170544 0.052292 -0.029742 0.051236 0.185160
56 -0.148597 -0.062112 -0.175712 -0.013324 0.023938 0.019190 0.021511 -0.054026 -0.311149 -0.032060 0.266394 0.141601 -0.162979 -0.060290 0.051868 -0.102996 -0.057002 -0.106194 -0.032322 0.213918 0.046714 0.085217 -0.120703 0.145405 0.287701 0.089126 -0.085889 -0.042164 -0.305978 -0.245866 -0.240932 0.025807 0.027961 -0.192550 -0.013972 0.033737 -0.012789 0.013456 -0.096144 0.177954 0.043848 0.136104 0.068768 0.117846 -0.051731 0.270473 -0.089290 -0.161027 -0.359338 -0.105196 0.130151 0.038012 -0.222607 -0.193245 0.306362 -0.314879 0.078552 -0.004465 -0.288788 -0.340626 -0.016520 0.086196 -0.115215 -0.000756 -0.209036 -0.052617 -0.221757 0.036715 0.182220 -0.014834 -0.014577 -0.020623 0.341347 -0.255093 0.098090 -0.361470 -0.094830 -0.061846 0.163314 0.046020 0.179048 0.001062 -0.138327 0.002221 0.101733 -0.045968 -0.016665 -0.137966 0.124816 0.077634 0.083038 -0.054128 0.109424 0.198360 -0.024011 -0.125205 0.101552 0.071096 -0.329429 0.093667 -0.098560 0.136802 -0.110425 -0.030167 -0.262068 0.461148 0.014317 0.300512 -0.050185 0.283703 -0.000356 0.143843 0.157173 0.050304 -0.018466 0.168655 -0.090627 -0.129896 0.225366 -0.001578 -0.155204 -0.080264 -0.482218 0.109888 -0.024084 0.055820 -0.216414 0.253275
64 -0.140320 -0.114489 -0.149776 0.048359 0.078730 -0.058332 0.008921 -0.009283 -0.386034 -0.080828 0.355986 0.177016 -0.186337 -0.052615 0.045886 -0.115881 -0.048559 -0.108094 0.020724 0.286803 0.100189 0.113205 -0.221156 0.195945 0.365394 0.029636 -0.030423 -0.031013 -0.328526 -0.281715 -0.310187 -0.048438 0.041424 -0.255424 -0.019790 0.042229 -0.005800 -0.023544 -0.038425 0.192482 0.156371 0.149828 0.038892 0.031542 -0.077614 0.235295 -0.107145 -0.196123 -0.432720 -0.094818 0.173965 0.058763 -0.240641 -0.203763 0.416744 -0.362008 0.072727 0.007916 -0.250433 -0.382277 -0.101020 0.014329 -0.108347 0.017248 -0.261929 -0.033898 -0.223643 -0.000536 0.167803 -0.022735 -0.006803 0.023616 0.235522 -0.148414 -0.002426 -0.285742 -0.124389 0.011685 0.185538 0.050857 0.160363 -0.053127 -0.126804 -0.045032 0.128370 0.005400 0.039904 -0.100025 0.133527 0.071937 0.015760 -0.050135 0.098780 0.176118 0.007144 -0.096279 0.045454 0.090592 -0.353256 0.052759 -0.105649 0.208495 -0.100251 -0.110411 -0.250792 0.497902 0.061348 0.297142 -0.001309 0.323953 -0.024519 0.103953 0.205242 0.037288 0.000383 0.151046 -0.067346 -0.156645 0.255348 0.038400 -0.116275 -0.008241 -0.366518 0.255739 0.030125 0.001654 -0.114148 0.217970
46 -0.137142 -0.145645 -0.131928 0.038173 0.063347 -0.002934 0.015397 -0.045260 -0.381665 -0.084662 0.330344 0.203840 -0.162386 0.036875 0.004887 -0.235761 -0.040695 -0.132338 -0.042246 0.375480 0.061863 0.053572 -0.093775 0.199605 0.323870 0.069441 -0.116989 -0.031952 -0.285023 -0.293961 -0.307749 0.007363 0.021002 -0.119546 -0.005474 0.036254 -0.041439 -0.022678 -0.005457 0.180799 0.071241 0.092628 0.011133 0.097792 -0.096428 0.282721 -0.166401 -0.180273 -0.463737 -0.076380 0.138634 0.031371 -0.194360 -0.210184 0.343849 -0.276962 0.093678 -0.014017 -0.317621 -0.451128 -0.100033 -0.028295 -0.116576 -0.073455 -0.277647 -0.090191 -0.286884 -0.059185 0.176644 -0.014524 -0.134282 -0.058576 0.184421 -0.185315 0.019818 -0.248587 -0.215229 0.002022 0.176259 -0.002291 0.149017 -0.092972 -0.168736 -0.046544 0.156408 -0.001484 0.020674 -0.126435 0.040508 0.091544 0.019086 -0.089150 0.111924 0.225168 0.010401 -0.043474 -0.000832 0.151359 -0.290299 0.068066 -0.107895 0.147579 -0.152934 -0.114268 -0.252435 0.477611 0.082833 0.294620 -0.023866 0.350688 -0.073862 0.068124 0.176474 0.018968 -0.039997 0.076624 -0.074557 -0.151306 0.173175 0.053820 -0.152685 -0.048068 -0.396789 0.224944 0.088573 -0.003659 -0.167597 0.173816
40 -0.201174 -0.137179 0.082424 -0.103916 0.172191 -0.090848 -0.161446 -0.088253 0.006843 -0.128208 0.280886 0.202113 -0.052786 -0.098679 -0.024254 -0.381076 -0.352878 -0.318196 -0.132734 0.109096 0.312485 -0.053449 0.413481 0.151426 0.026901 0.076573 -0.090828 -0.156935 0.003677 -0.246573 -0.274062 -0.000944 -0.016714 0.083786 -0.118879 -0.196885 -0.010671 0.079946 0.001233 0.209443 -0.196842 0.138962 -0.122386 0.226415 -0.103926 0.385959 -0.160082 -0.102663 -0.164084 0.252306 -0.061764 -0.097604 -0.006868 -0.144475 0.056141 -0.217353 -0.002456 -0.074648 -0.085859 -0.183528 0.001850 0.057730 -0.287306 -0.093978 -0.013999 0.068742 -0.165302 -0.102996 0.272783 0.155993 -0.053631 -0.410483 0.272204 -0.512951 0.159457 -0.264085 0.119700 -0.118817 0.004044 -0.311805 -0.098792 -0.011563 -0.136825 -0.468957 -0.107119 0.109588 0.152489 -0.410891 -0.052230 0.081215 -0.078345 -0.129338 -0.107226 0.230497 -0.137619 0.190508 -0.105129 0.017412 0.072809 0.012400 0.099473 0.092345 0.008597 -0.044124 -0.016936 0.154777 0.275374 0.155139 -0.242322 0.077449 0.023962 0.106813 -0.012152 0.057260 0.052685 0.089292 0.012505 0.128256 -0.208981 -0.154991 -0.058966 -0.009971 -0.341944 -0.123886 0.001075 0.183959 -0.096680 -0.144908
49 -0.126431 -0.146404 0.059483 -0.047622 0.155102 -0.048175 -0.142039 -0.102739 0.012984 -0.114202 0.322461 0.289732 -0.089278 -0.076304 -0.032178 -0.340737 -0.321416 -0.210558 -0.108805 0.233534 0.268327 -0.054858 0.340658 0.149018 0.096394 0.118768 -0.092967 -0.229967 -0.000151 -0.278198 -0.305858 -0.056524 -0.028828 0.115930 -0.136000 -0.185948 -0.050160 0.013125 0.005895 0.278655 -0.173517 0.173999 -0.109806 0.240028 -0.076072 0.409710 -0.187510 -0.170209 -0.186704 0.130570 -0.072762 -0.147133 0.041411 -0.122811 0.083008 -0.226424 0.010499 -0.093372 -0.138548 -0.226009 -0.010799 0.043305 -0.255993 -0.127348 0.000952 0.105193 -0.135899 -0.138253 0.328290 0.140020 -0.068236 -0.395962 0.270480 -0.437221 0.024457 -0.109907 0.129258 -0.034026 0.133256 -0.286541 -0.179122 0.008489 -0.129766 -0.408881 -0.193454 0.070263 0.097046 -0.377187 -0.071625 0.087662 -0.059334 -0.124173 -0.040739 0.193938 -0.200451 0.145934 -0.125033 0.074073 0.047866 0.036988 0.054078 0.085072 0.039021 -0.098378 -0.032781 0.167563 0.192126 0.133915 -0.262949 0.044949 -0.023583 0.062080 0.070401 0.026393 0.091433 0.061537 0.026611 0.148283 -0.191072 -0.099694 -0.095805 -0.037934 -0.363049 -0.016443 0.024558 0.071608 -0.056922 -0.138355
22 -0.047473 0.033051 -0.042059 -0.137145 0.008839 -0.145053 -0.148747 -0.173796 -0.057825 0.100433 -0.025419 0.251990 0.182792 -0.059674 0.087597 -0.244083 -0.257212 -0.214611 0.003917 0.445038 0.343939 -0.045396 0.262782 0.249941 0.178122 0.253300 -0.021507 -0.119238 0.026757 0.064536 -0.171175 0.097543 0.129310 -0.100767 -0.185567 -0.347447 0.083819 -0.075339 0.056601 0.138046 0.040053 0.058865 -0.318631 0.051229 0.102403 0.371414 -0.372423 0.084948 -0.211273 0.002547 0.194721 -0.169800 -0.028551 -0.119541 0.273521 0.079475 0.041457 -0.190539 -0.162707 -0.321145 -0.039558 -0.266095 0.033059 0.155831 0.244018 0.048354 -0.308659 -0.052267 0.249835 0.233659 -0.049661 -0.237476 0.177580 -0.345535 0.137515 -0.043404 -0.116933 0.151971 0.151649 -0.028210 -0.153327 -0.040292 0.183350 -0.530903 -0.127838 0.027535 0.190242 -0.229936 0.030487 0.137722 -0.019034 -0.151020 0.040871 0.030358 -0.175315 0.072912 -0.208334 0.345956 -0.003421 -0.103422 0.002749 0.302692 -0.014866 0.085072 0.030977 0.323232 0.015875 0.073490 -0.101849 0.130844 0.177073 -0.101176 -0.030128 0.027533 -0.117742 -0.016530 -0.193354 0.014413 0.083897 0.081132 0.034173 -0.220336 -0.292324 -0.005660 0.238661 -0.016679 -0.199402 0.022274
18 -0.092880 0.066543 -0.041694 -0.121619 0.068340 -0.112972 -0.198721 -0.157168 -0.018433 0.176653 -0.002420 0.277180 0.163181 -0.093638 0.055554 -0.216461 -0.229265 -0.145996 -0.026131 0.411792 0.276011 -0.047526 0.249018 0.232415 0.258277 0.273166 0.046018 -0.112668 0.045666 0.006573 -0.176721 0.144977 0.074996 -0.114447 -0.168554 -0.307490 0.061826 -0.092815 0.118321 0.252045 -0.018861 0.185920 -0.247255 0.042534 0.055505 0.325606 -0.362418 0.049612 -0.212749 -0.055567 0.204875 -0.196060 0.007748 -0.120091 0.283584 0.011924 0.041180 -0.257798 -0.255723 -0.282502 0.019383 -0.332182 0.010833 0.132845 0.229422 0.093733 -0.236828 -0.028989 0.295622 0.305448 0.033355 -0.261575 0.278857 -0.394839 0.126563 -0.080797 0.027203 0.168977 0.189811 -0.009205 -0.121514 -0.026070 0.129551 -0.551437 -0.156120 0.054448 0.183590 -0.202153 0.055800 0.169576 -0.046518 -0.128922 0.065471 0.031392 -0.282379 0.066608 -0.163443 0.372578 -0.039546 -0.072813 -0.064397 0.326911 0.013803 0.089789 0.021073 0.260853 -0.048084 0.023434 -0.093489 0.074599 0.084515 -0.113378 -0.129248 -0.023286 -0.098872 0.042333 -0.144747 0.005671 0.105813 0.094938 0.020861 -0.300172 -0.289363 0.066879 0.228149 -0.036790 -0.179101 -0.058097
55 0.210104 -0.177232 -0.250452 0.223994 -0.137809 -0.188769 0.221147 0.172331 0.230691 0.148031 0.190374 0.437389 -0.006258 -0.149670 0.126399 0.030988 -0.147012 0.211992 0.111500 0.194026 0.390236 -0.154217 -0.260828 0.173013 0.537093 -0.079730 -0.198376 -0.378275 -0.239309 0.104583 0.018612 -0.168482 0.284924 -0.286292 0.261418 0.093358 -0.342508 0.022122 -0.129765 0.000710 0.398781 0.483376 -0.104583 -0.410014 0.097558 0.357107 0.139265 -0.162543 0.216430 -0.193793 -0.117750 0.052577 0.200083 0.094765 0.093169 -0.194930 0.019372 -0.138279 0.173716 -0.328877 0.389641 -0.180573 0.180059 -0.049486 0.086059 0.186264 -0.114927 -0.333519 0.289581 -0.247096 -0.165591 -0.011281 0.047403 0.313254 0.222430 0.312948 0.046993 -0.108397 -0.067430 -0.074749 -0.169878 0.244596 0.192966 -0.144440 -0.248600 -0.281389 0.217477 -0.198422 0.032381 0.227148 0.351269 0.057250 0.424938 -0.008765 -0.366638 0.043972 -0.047286 -0.029635 0.028483 -0.014658 0.078784 0.454976 -0.177608 0.002243 -0.133239 0.252257 -0.053273 -0.130835 0.273833 0.144831 0.087986 0.366760 0.234528 -0.116147 0.188781 0.046171 0.050063 -0.288820 0.357536 0.174628 0.298943 0.204004 -0.129997 -0.483853 -0.296896 -0.301846 -0.121271 0.180088
50 0.186065 -0.154178 -0.286221 0.254554 -0.123212 -0.191865 0.173886 0.222525 0.225622 0.121273 0.126154 0.385053 0.056228 -0.210729 0.143277 0.051268 -0.143553 0.173165 0.122309 0.180701 0.352309 -0.197978 -0.172707 0.175349 0.510210 -0.110682 -0.123063 -0.380937 -0.203474 0.088832 0.011238 -0.145633 0.263987 -0.270319 0.236125 0.067953 -0.303191 0.043093 -0.159004 0.027223 0.355494 0.502867 -0.172728 -0.384574 0.079204 0.330444 0.108773 -0.191689 0.238006 -0.078573 -0.142835 0.058319 0.251861 0.039740 0.079738 -0.206851 -0.000039 -0.183436 0.195696 -0.310533 0.429856 -0.215035 0.120005 -0.067124 0.130130 0.123976 -0.152958 -0.281641 0.260267 -0.176096 -0.136002 -0.135758 -0.016539 0.296158 0.122540 0.330429 0.038148 -0.039021 -0.011551 -0.138724 -0.264318 0.297029 0.157440 -0.167247 -0.185266 -0.297688 0.178067 -0.209792 0.000404 0.257452 0.305894 0.001685 0.349920 0.083681 -0.359409 0.083510 -0.041845 -0.107393 0.068650 0.008904 0.062660 0.439251 -0.139886 0.024489 -0.133320 0.206297 -0.021539 -0.135796 0.194995 0.173240 0.175446 0.313811 0.164017 -0.085076 0.166790 0.078477 0.038216 -0.239389 0.263036 0.216878 0.298605 0.221996 -0.186224 -0.556352 -0.326687 -0.289800 -0.130672 0.145165
7 0.227769 -0.154644 -0.195726 0.120312 -0.120516 -0.147995 0.055060 0.171342 0.302710 0.035593 0.099251 0.355521 0.034082 -0.241686 0.285810 0.006236 -0.308980 -0.001697 0.068216 0.039754 0.347376 -0.252370 -0.080091 0.130757 0.416550 -0.161569 -0.045773 -0.443350 -0.060123 0.020958 0.084708 -0.129367 0.142822 -0.330180 0.123495 0.054160 -0.233105 0.079875 -0.100589 0.016398 0.212507 0.391468 -0.134723 -0.245836 -0.056782 0.457287 0.154401 0.031467 0.276508 0.011127 -0.209475 0.101547 0.079149 0.068984 0.163631 -0.158908 -0.032998 -0.207747 0.226696 -0.169309 0.490912 -0.151628 0.212688 0.122164 -0.052148 0.218547 -0.119052 -0.175617 0.364091 -0.112460 -0.063849 -0.038907 -0.008675 0.085416 0.497510 0.206895 0.160667 -0.095419 -0.039108 -0.286080 -0.230195 0.365848 0.075381 -0.143684 -0.250021 -0.352976 0.241542 -0.236189 0.125295 0.147813 0.422662 -0.032882 0.391276 0.142975 -0.270740 0.134310 0.124104 -0.158512 0.033317 -0.045920 0.014107 0.362838 -0.202821 0.166392 -0.208493 0.132160 -0.137099 -0.133338 0.282735 0.043616 0.043673 0.458302 0.006309 -0.079381 0.059179 0.089987 -0.011814 -0.252043 0.072962 0.088336 0.072797 0.150368 0.127061 -0.343657 -0.315171 -0.254585 0.034840 0.041617
6 0.225917 -0.191639 -0.197990 0.134966 -0.096145 -0.165877 0.093802 0.210396 0.235464 0.047418 0.110910 0.301882 0.010191 -0.243253 0.292016 0.007314 -0.320840 -0.042648 0.091085 0.062929 0.316203 -0.259972 -0.036066 0.075097 0.424504 -0.204383 0.025283 -0.452316 -0.029749 0.071301 0.084599 -0.238913 0.167334 -0.349559 0.079293 0.052092 -0.172388 0.131798 -0.187026 -0.026436 0.225887 0.369502 -0.116482 -0.252932 -0.062314 0.524102 0.202121 0.005264 0.234947 0.091332 -0.184657 0.101309 0.035226 -0.049965 0.198970 -0.186037 -0.053495 -0.187483 0.221330 -0.195602 0.472586 -0.138688 0.183805 0.119931 -0.024243 0.147467 -0.170717 -0.197483 0.342690 -0.067971 -0.011052 -0.064175 -0.041691 0.199631 0.396139 0.263510 0.155053 0.083366 0.065061 -0.217063 -0.324908 0.327479 0.059262 -0.148553 -0.182470 -0.264100 0.273536 -0.312479 0.096621 0.078931 0.426701 -0.018576 0.381210 0.232756 -0.262200 0.148313 0.108841 -0.174515 0.039057 -0.110872 0.030671 0.353880 -0.180510 0.156402 -0.243731 0.177361 -0.129138 -0.062164 0.277570 0.076595 0.046922 0.467048 -0.019382 -0.061728 0.081293 0.121177 -0.060664 -0.253167 0.045713 0.045579 0.038357 0.157136 0.130863 -0.355123 -0.306339 -0.194807 0.065723 -0.009830
58 -0.089234 -0.107596 -0.028854 -0.109719 -0.032943 -0.032865 0.106762 0.008554 -0.174286 -0.047624 0.042142 0.286336 0.081084 0.055830 0.014369 -0.107389 -0.179997 -0.074709 0.001822 0.214017 0.053195 -0.069414 -0.029085 0.244211 0.161277 -0.086622 0.011704 0.147185 0.048686 0.028398 -0.074975 -0.011114 0.018479 -0.026457 -0.008842 -0.071108 0.096262 0.093883 0.043297 0.067291 0.079825 -0.043819 -0.128159 0.034930 -0.097796 0.171436 0.031453 0.107798 -0.313682 0.024017 0.073592 -0.017284 0.037206 -0.150149 0.172629 -0.075808 -0.127246 -0.145835 -0.074006 -0.195283 0.027387 -0.219792 -0.018116 -0.024616 0.004044 0.039154 -0.143235 -0.039624 0.142837 0.026816 -0.080142 -0.275155 0.195166 -0.393934 0.189437 -0.264488 0.026513 -0.254798 -0.061091 -0.215139 -0.026244 -0.149980 -0.201850 -0.066267 0.053993 0.031401 0.142817 -0.125345 0.148168 -0.017396 0.029423 -0.050403 0.063286 0.334465 -0.212646 0.125898 -0.126675 0.106256 -0.087964 0.008418 -0.091501 0.166274 -0.120488 0.003024 -0.168612 0.157417 0.074117 0.118795 -0.220562 0.244461 0.075019 -0.011248 0.023100 -0.111933 -0.049662 0.038253 -0.178539 0.179518 -0.244794 0.121320 -0.166054 -0.004048 -0.236630 0.038859 0.024739 0.150721 -0.271297 0.207996
68 -0.071359 -0.080357 -0.014232 -0.041976 -0.031286 -0.067042 0.123893 0.029628 -0.143282 -0.034043 0.009551 0.290056 0.099408 0.009775 -0.021464 -0.077391 -0.163411 -0.051170 0.034155 0.177914 0.065006 -0.040951 -0.080110 0.255887 0.159456 -0.070576 0.010733 0.187778 0.042751 0.069612 -0.048931 -0.001186 0.000039 -0.039048 0.010248 -0.067555 0.124408 0.074678 0.094398 0.037991 0.096966 0.005520 -0.094803 -0.002293 -0.077115 0.058914 0.053849 0.098700 -0.301429 0.028165 0.083680 -0.015128 0.018350 -0.119750 0.176950 -0.072391 -0.138037 -0.118491 -0.025057 -0.148828 0.009234 -0.235467 0.019846 0.015611 0.013350 0.062619 -0.161225 0.017698 0.104502 -0.004775 -0.062626 -0.229992 0.158241 -0.374048 0.160194 -0.239628 0.121310 -0.271734 -0.118545 -0.134906 0.022180 -0.143957 -0.165886 -0.071563 0.060463 0.040087 0.189518 -0.022887 0.161015 0.026186 0.016951 -0.049687 0.000810 0.269131 -0.220813 0.094901 -0.132885 0.107076 -0.090551 0.061850 -0.095052 0.189047 -0.130787 -0.033259 -0.124143 0.152413 0.133308 0.073190 -0.215635 0.270032 0.089864 -0.012269 -0.020614 -0.100467 -0.047741 0.034010 -0.158288 0.174678 -0.209399 0.140620 -0.132231 -0.036451 -0.167302 0.019534 0.020505 0.151322 -0.268677 0.194769
10 0.084046 -0.171224 -0.109588 -0.073143 -0.053878 0.057897 -0.030285 -0.102805 0.031875 0.030039 0.142799 0.213689 -0.087728 0.105165 0.032037 -0.009699 -0.023917 -0.076829 -0.034659 0.071442 0.281655 -0.066177 -0.105997 0.336797 0.156977 -0.041200 0.063348 -0.065283 -0.074475 -0.205496 -0.288555 -0.128883 -0.012114 -0.128739 -0.128004 -0.140986 0.177868 -0.157625 -0.013931 -0.023776 -0.133384 0.043501 0.012721 0.189019 0.141664 0.339650 0.027142 -0.025817 -0.129538 -0.128743 0.199123 0.098091 0.012190 -0.148838 0.178777 -0.107996 -0.009392 -0.125669 -0.072446 -0.108010 0.038714 -0.137944 -0.082709 0.036848 -0.043956 -0.014385 -0.288564 0.032474 0.108521 -0.041671 -0.006753 -0.227625 0.254388 -0.321119 0.115894 -0.209370 0.092495 -0.198348 -0.131034 -0.104422 -0.100853 -0.161025 -0.009315 -0.100527 -0.331503 -0.070602 0.113077 -0.112992 0.021025 0.017144 0.070782 -0.126163 0.008369 0.163762 -0.140826 0.055337 -0.035850 -0.016429 -0.017912 0.054187 -0.065790 0.151648 0.056991 -0.081301 -0.130426 0.050808 0.063505 0.034879 -0.128808 0.184430 0.242899 -0.124074 0.022189 -0.175359 0.074747 0.109177 -0.130944 0.165280 -0.091814 -0.004096 -0.066203 -0.085697 -0.075073 0.025838 0.027101 0.012531 -0.176169 0.159276
27 0.035183 -0.152268 -0.110593 -0.140470 -0.036215 0.069327 -0.023597 -0.070499 -0.067406 -0.041655 0.139786 0.181160 -0.123327 0.126765 0.011811 -0.052596 -0.041359 -0.121466 -0.046131 0.044768 0.274024 -0.026553 -0.108907 0.349560 0.098224 -0.108237 0.014818 0.002384 -0.139329 -0.228665 -0.258017 -0.098437 0.032114 -0.151961 -0.104938 -0.132613 0.099401 -0.096198 0.049724 0.020559 -0.106347 0.039510 -0.063638 0.156266 0.139090 0.306180 0.031763 -0.012679 -0.248564 0.000116 0.225246 0.105156 -0.016914 -0.169820 0.222688 -0.203796 -0.119418 -0.119730 -0.029080 -0.132178 -0.015242 -0.111092 -0.116755 -0.013911 -0.007462 0.013936 -0.270836 -0.015891 0.104780 -0.061809 -0.040154 -0.227550 0.260458 -0.345909 0.070791 -0.259681 0.097825 -0.230305 -0.163716 -0.139506 -0.053597 -0.159576 -0.055235 -0.119780 -0.286056 0.034701 0.086701 -0.162431 0.019740 -0.035020 0.018299 -0.129606 0.014607 0.246350 -0.133643 0.064135 -0.027597 0.029307 -0.035396 -0.012619 -0.050945 0.159037 0.048569 -0.142242 -0.099149 0.062894 0.109189 -0.060110 -0.146833 0.196089 0.150257 -0.070574 -0.020401 -0.197868 0.137223 0.079254 -0.149456 0.196134 -0.102155 0.012666 -0.144260 0.013722 -0.178826 -0.035027 0.020200 0.081672 -0.203356 0.116622
17 -0.061380 -0.059340 0.046569 -0.081335 0.046462 -0.125608 0.009541 0.007572 0.114901 -0.089688 0.031239 0.224092 -0.017946 0.095342 -0.069706 -0.067275 -0.180322 -0.182983 -0.039664 0.172137 0.198337 -0.046884 -0.078703 0.195822 0.143961 -0.028276 -0.071838 -0.063774 -0.002914 -0.070569 -0.118896 0.011647 0.067346 -0.121134 -0.056911 -0.132352 0.258591 -0.010251 0.039929 0.203995 0.009191 -0.016996 -0.173891 0.010869 -0.048218 0.132494 -0.050658 0.126159 -0.198431 0.033953 0.087864 -0.052922 0.102942 -0.062134 0.248249 -0.156896 -0.062237 -0.073714 -0.044154 -0.292199 -0.026395 -0.177745 0.071032 0.014152 -0.046088 0.124502 -0.115825 -0.068459 0.139022 0.029486 -0.113379 -0.204414 0.056583 -0.230337 0.179879 -0.068523 -0.090907 -0.252793 -0.154432 -0.220626 0.110739 -0.053892 0.034965 -0.236184 -0.111421 -0.107806 0.319062 -0.018619 0.126845 0.133044 0.029454 -0.084089 -0.057183 0.163574 -0.196098 0.078391 -0.030839 0.097758 0.044437 0.193854 -0.015908 0.185051 -0.122305 0.087701 -0.076075 0.173671 0.123105 -0.043131 -0.104482 0.229004 0.042662 0.032125 0.119764 -0.021926 -0.123609 0.044218 0.020945 0.127630 0.074655 -0.030424 0.079521 -0.007072 -0.061684 -0.018662 -0.036985 -0.026425 -0.071254 0.001887
53 0.143720 -0.050059 -0.268922 -0.068178 0.184078 -0.200551 -0.063983 0.014956 0.203703 -0.233508 -0.018879 0.205397 -0.037033 -0.092116 -0.045349 -0.152853 -0.150347 -0.138514 -0.036799 0.276882 0.423942 0.079350 -0.086998 0.348098 0.182862 -0.292832 -0.070817 -0.352514 -0.138829 -0.021043 0.074550 -0.147265 -0.063413 -0.374658 -0.031756 -0.032828 0.164736 0.042913 -0.074898 0.064006 0.019543 0.163814 -0.387299 -0.209582 -0.212030 0.251255 0.003417 0.257038 0.075815 -0.020730 -0.137699 0.075379 0.214768 0.016151 0.314884 -0.298976 0.139129 -0.188747 -0.033073 -0.147812 0.055802 -0.200807 0.326418 0.096371 -0.282250 0.213064 0.056458 -0.159164 0.118718 -0.132496 -0.091131 0.009441 -0.312333 0.036848 0.444310 0.112378 -0.271486 -0.265081 -0.132107 -0.326384 -0.119502 0.123808 0.008527 -0.214824 -0.067178 -0.156991 0.361910 -0.015701 0.136876 0.092370 0.235739 -0.213046 0.277605 0.124113 -0.302244 0.127208 -0.007712 0.002042 0.211139 0.181322 -0.208738 0.284339 -0.323900 0.194434 -0.122754 0.257366 0.140767 -0.140837 0.137433 0.143460 -0.237612 0.132678 0.022263 -0.035862 -0.230792 0.083922 0.281852 -0.208695 0.388777 -0.079127 0.069118 -0.052777 -0.080381 -0.542539 -0.125864 -0.020230 -0.149248 -0.197476
5 0.176024 -0.073151 -0.253000 -0.057979 0.152001 -0.233429 -0.007816 0.012060 0.291081 -0.265615 0.014589 0.211976 -0.017392 -0.066468 -0.063592 -0.187296 -0.180497 -0.171083 -0.054857 0.256494 0.384639 0.075191 -0.083737 0.323230 0.194810 -0.248111 -0.128889 -0.348427 -0.135957 0.005274 0.065112 -0.145882 -0.052658 -0.327190 0.011457 -0.013056 0.106723 0.053825 -0.077172 0.047925 0.040692 0.137909 -0.380060 -0.248944 -0.203175 0.223085 0.004214 0.216342 0.056444 0.011580 -0.185471 0.113999 0.194923 -0.009840 0.322002 -0.336441 0.163026 -0.160908 -0.011302 -0.218901 0.027409 -0.232522 0.307600 0.073665 -0.299413 0.221199 0.053734 -0.182118 0.112505 -0.096620 -0.147863 0.018897 -0.310256 0.062501 0.394410 0.133360 -0.275506 -0.255497 -0.136177 -0.295699 -0.089501 0.152184 0.043210 -0.229868 -0.076538 -0.195431 0.381609 0.004565 0.092965 0.092446 0.229250 -0.203699 0.232784 0.123080 -0.312737 0.181968 -0.015459 -0.012594 0.245523 0.243005 -0.197364 0.284421 -0.311802 0.164566 -0.110387 0.286461 0.182746 -0.119126 0.137927 0.184039 -0.244112 0.131735 0.047255 -0.020618 -0.232885 0.044610 0.261808 -0.230612 0.400149 -0.076886 0.111852 -0.004118 -0.060839 -0.514053 -0.143061 -0.028418 -0.103092 -0.213418
62 0.207260 -0.133262 -0.317898 -0.108998 0.098224 -0.276922 -0.122163 0.043444 0.305249 -0.316704 0.093681 0.245739 0.002696 0.016346 -0.140701 -0.275148 -0.256343 -0.052484 -0.022023 0.198129 0.274727 0.105057 -0.008012 0.295590 0.074646 -0.085844 -0.112051 -0.174008 -0.148949 -0.038474 0.007655 -0.222901 -0.062401 -0.294175 0.039612 0.154973 0.026226 0.124259 0.011894 0.163388 0.081289 0.123929 -0.361745 -0.216903 -0.134975 0.225829 0.032349 0.244749 0.052933 -0.065103 -0.333104 0.091134 0.177529 -0.015426 0.251463 -0.339908 0.067801 0.034329 -0.048242 0.014908 0.005089 -0.215696 0.183924 0.056928 -0.342104 0.286738 0.046608 -0.206818 0.131789 -0.079254 -0.103336 0.043222 -0.073017 -0.040432 0.290184 0.174717 -0.004206 -0.358695 -0.063688 -0.166483 -0.007429 0.103240 -0.009879 -0.243128 -0.255684 -0.001390 0.360569 0.025398 0.141803 -0.143221 0.194283 -0.281633 0.175124 0.174466 -0.337987 0.124785 -0.000763 0.008943 0.187067 0.291623 -0.209910 0.345399 -0.278874 0.084031 -0.071257 0.322790 0.296931 -0.181782 0.058329 0.150012 -0.429079 0.116864 -0.052783 -0.086237 -0.028289 -0.082326 0.024402 -0.203290 0.344155 -0.189950 0.043965 -0.077741 -0.192424 -0.568657 -0.108579 -0.030906 -0.237120 -0.265955
52 -0.056881 -0.089143 -0.039391 -0.076180 0.065937 -0.062695 -0.030907 0.078844 0.017715 -0.167322 0.081780 0.176250 -0.049118 0.023565 -0.012696 -0.081931 -0.177615 -0.136794 -0.060759 0.090951 0.200223 -0.007407 -0.050017 0.201592 0.092976 -0.067003 -0.034909 -0.058255 -0.058169 -0.159740 -0.142487 -0.028452 0.051051 -0.102180 -0.042720 -0.082640 0.158156 -0.005940 -0.008541 0.187958 -0.007229 0.043570 -0.131411 0.044865 -0.053461 0.196634 -0.012374 0.046587 -0.192286 0.053667 0.082703 -0.028248 0.028084 -0.053591 0.252169 -0.216150 -0.078623 -0.085762 -0.029738 -0.215074 -0.003748 -0.059607 -0.056622 -0.027690 -0.084826 0.110652 -0.140371 -0.021245 0.144610 0.016338 -0.073980 -0.226660 0.161790 -0.304679 0.187190 -0.165341 0.028075 -0.253613 -0.122990 -0.270928 0.066912 -0.024918 -0.050259 -0.208798 -0.055989 -0.080335 0.250667 -0.087154 0.118908 0.109656 0.069536 -0.125244 -0.013771 0.221944 -0.177637 0.104187 -0.001020 0.009516 -0.040938 0.155800 -0.028658 0.162434 -0.068615 0.031161 -0.120704 0.182848 0.101989 0.007373 -0.153581 0.216103 0.072783 0.076994 0.076806 -0.074298 -0.031877 0.047631 -0.009983 0.090977 -0.019413 -0.024279 -0.026798 0.030549 -0.115955 -0.005031 -0.039791 -0.020408 -0.055363 0.005195
11 0.106919 -0.124667 -0.251172 -0.071279 0.117896 -0.289731 -0.175912 -0.020371 0.299142 -0.314470 0.120868 0.259830 -0.026262 0.047579 -0.136220 -0.314905 -0.260712 -0.078717 0.011084 0.150949 0.257821 0.087703 -0.050571 0.255365 0.066855 -0.091973 -0.107760 -0.157546 -0.132184 -0.113735 -0.008117 -0.196321 -0.088476 -0.313700 0.095517 0.219248 0.059518 0.172071 0.055372 0.200617 0.063889 0.182878 -0.288387 -0.206002 -0.171674 0.165147 0.037486 0.283725 0.005476 -0.079263 -0.337208 0.070193 0.173593 -0.009859 0.238704 -0.363581 0.117524 0.078894 -0.078490 0.003414 0.022878 -0.196405 0.222582 0.045096 -0.441587 0.255349 0.007314 -0.186572 0.171423 -0.091108 -0.077192 0.043483 -0.157122 0.019747 0.281065 0.208012 -0.060906 -0.354078 -0.056338 -0.147149 0.044751 0.115965 -0.032314 -0.237154 -0.226075 -0.045984 0.396074 0.059139 0.141622 -0.077812 0.166756 -0.255653 0.076960 0.136467 -0.293527 0.058651 0.035930 -0.021250 0.174722 0.324685 -0.146673 0.347736 -0.299577 0.105457 -0.114412 0.301286 0.348094 -0.151824 0.083089 0.137511 -0.440861 0.126738 -0.062421 -0.001093 -0.069820 -0.028121 0.077648 -0.192408 0.368021 -0.227769 0.088875 -0.113844 -0.199282 -0.589894 -0.131222 -0.048266 -0.278587 -0.230860
13 -0.129768 -0.011616 0.000875 -0.177108 0.017768 -0.045374 0.035758 0.007026 0.036021 -0.040795 -0.029844 0.101926 -0.024981 0.057251 -0.003975 -0.056546 -0.119519 -0.145115 -0.139069 0.096214 0.207322 0.012060 -0.033811 0.171621 0.084109 -0.020554 -0.071036 -0.000273 -0.051377 -0.098192 -0.106615 0.088850 0.079917 -0.155154 -0.057383 -0.144915 0.257128 -0.028712 -0.057006 0.178657 -0.041600 0.003693 -0.096104 0.051799 0.002002 0.295910 -0.037763 0.097777 -0.250051 0.059170 0.161270 -0.023933 0.044270 -0.024644 0.113449 -0.162564 -0.044958 -0.133048 -0.154890 -0.312306 -0.007587 -0.076533 -0.035242 -0.048086 0.018622 0.043962 -0.177280 -0.042911 0.151508 0.048399 -0.103146 -0.200377 0.187964 -0.281515 0.256406 -0.197887 -0.128558 -0.191088 -0.124507 -0.200131 0.165775 -0.048160 -0.008990 -0.229418 -0.082407 -0.094103 0.240610 -0.127827 0.033069 0.215298 0.107344 -0.048230 -0.008679 0.148636 -0.199828 0.037911 0.052228 0.069508 -0.063875 0.190885 -0.019777 0.131707 -0.146802 0.144424 -0.093929 0.146063 0.067102 0.023020 -0.090788 0.216617 0.135074 0.068837 0.119887 0.000314 -0.181389 0.054970 -0.039010 0.142709 0.074164 -0.068561 0.027867 0.002663 -0.051085 0.087383 0.029284 0.015327 -0.064057 0.101603
61 -0.118241 -0.035894 0.020845 -0.211658 -0.046550 -0.023925 0.089696 -0.037407 0.033731 -0.047172 0.032525 0.136032 -0.063279 0.065161 -0.005296 -0.067809 -0.167026 -0.205190 -0.165119 0.122662 0.173289 -0.012058 -0.018514 0.123458 0.135430 0.012738 -0.093729 -0.021811 -0.078435 -0.154564 -0.142105 0.049699 0.083869 -0.172635 -0.092982 -0.124959 0.210615 -0.022110 -0.054450 0.152881 -0.072963 -0.007768 -0.069131 0.100565 0.002999 0.322605 -0.054138 0.064180 -0.271138 0.101329 0.148490 -0.014931 0.002548 -0.103995 0.153298 -0.180089 -0.083314 -0.126973 -0.173525 -0.356259 -0.050195 -0.059389 -0.014353 -0.071493 0.047080 0.040869 -0.156722 -0.067968 0.141915 0.082211 -0.086969 -0.186149 0.294547 -0.372492 0.267519 -0.273263 -0.074984 -0.185018 -0.079516 -0.154656 0.151276 -0.031596 -0.029479 -0.205695 -0.147503 -0.055672 0.184212 -0.223539 0.052350 0.133304 0.052466 -0.010340 -0.020006 0.201430 -0.198201 0.085792 0.110373 0.117155 -0.072518 0.137108 0.021571 0.110852 -0.076353 0.120102 -0.088312 0.161794 0.017684 0.042262 -0.130049 0.202201 0.101320 0.070434 0.106870 -0.025671 -0.129470 0.113044 -0.133213 0.235109 0.002551 -0.034956 -0.015148 0.072725 -0.060442 0.155528 0.038713 0.048257 0.040290 0.084690
25 0.091392 0.042706 -0.201724 -0.203062 -0.035626 0.054762 0.102307 -0.236605 0.159847 -0.215873 -0.130367 0.013209 -0.098188 -0.086507 -0.186014 -0.086083 -0.049826 -0.242507 -0.115225 0.133731 0.338412 0.212815 -0.069095 0.385434 -0.029652 -0.247895 -0.146775 -0.150561 -0.345364 0.030448 0.058181 -0.003267 -0.019451 -0.442280 -0.208811 -0.068720 0.081215 0.069736 -0.141835 -0.223454 -0.288935 0.137826 -0.159083 -0.174549 -0.029745 0.273345 0.101219 0.028460 -0.083590 0.116093 -0.119529 0.308896 0.078393 -0.197213 0.098568 -0.464238 0.072497 -0.208208 -0.130338 -0.048732 -0.079856 -0.120291 0.253114 -0.043148 -0.081731 0.011113 0.116962 -0.046452 -0.280822 -0.301594 0.114393 0.007033 -0.260152 0.214043 0.120237 -0.069156 -0.277336 -0.088069 -0.117631 -0.038298 0.020127 -0.018477 0.060912 -0.224529 -0.093032 0.066357 -0.034529 -0.065685 -0.176335 -0.132705 0.149620 0.056104 0.242742 0.170313 -0.363181 0.123864 0.029153 0.032878 0.169851 0.302274 -0.110191 0.105421 -0.390171 -0.085072 0.004168 0.125726 0.284220 0.093184 0.188351 0.074256 -0.209230 -0.012576 -0.084181 -0.106860 -0.157786 0.225184 0.203886 0.056927 0.267544 0.006920 0.097032 -0.077994 -0.231686 -0.647966 -0.090666 0.220395 -0.190439 -0.108329
26 0.145369 0.057863 -0.186205 -0.167913 -0.025881 0.020655 0.103357 -0.227690 0.147031 -0.222143 -0.061650 0.030898 -0.083994 -0.123993 -0.184845 -0.131188 -0.124529 -0.230740 -0.137213 0.111961 0.270215 0.202015 -0.050405 0.329153 -0.028221 -0.157210 -0.170383 -0.162019 -0.367700 0.036306 0.021304 0.040984 -0.005206 -0.391961 -0.168889 -0.040579 0.035406 0.086205 -0.074811 -0.189969 -0.259643 0.112498 -0.166694 -0.140250 -0.067542 0.177104 0.017930 -0.013934 -0.084057 0.152168 -0.175042 0.281061 0.055257 -0.241032 0.172634 -0.480651 0.028839 -0.195095 -0.123682 -0.083538 -0.059521 -0.138615 0.215408 -0.036336 -0.053555 0.040000 0.168470 -0.074415 -0.269072 -0.274797 0.119259 0.048924 -0.166938 0.048784 0.190382 -0.167780 -0.172848 -0.162090 -0.155395 -0.020360 0.070381 0.010813 0.051930 -0.252072 -0.092669 0.122984 -0.071389 -0.048759 -0.149783 -0.161709 0.137337 0.037377 0.235179 0.180326 -0.328398 0.099813 0.036484 0.064597 0.154017 0.280790 -0.059867 0.089086 -0.340003 -0.097196 0.027416 0.141043 0.285320 0.069020 0.192253 0.054540 -0.298841 -0.009293 -0.137837 -0.111042 -0.082817 0.212835 0.135194 0.048855 0.280895 0.050520 0.078273 -0.079401 -0.295000 -0.640245 -0.098102 0.223810 -0.161179 -0.153551
30 0.317700 -0.151244 -0.150059 0.210316 -0.164232 -0.099504 0.245902 -0.050313 0.096353 0.130910 0.038761 0.203330 0.028240 -0.241379 0.080576 -0.166787 -0.165515 -0.054048 0.054260 0.165719 0.110182 -0.220392 -0.052426 0.042225 0.370879 -0.061154 0.016447 -0.132473 -0.176220 0.237772 0.051284 -0.039802 0.064428 -0.207572 0.039936 0.142109 -0.207381 0.185904 -0.000047 -0.338756 0.129039 0.291255 0.049815 -0.134842 -0.080020 0.158993 0.032517 -0.204057 0.094831 0.213449 -0.371340 0.249447 0.057146 -0.237957 0.201451 -0.183934 -0.025730 -0.241327 0.098134 -0.249307 0.294667 -0.277865 0.214391 0.075292 0.006724 -0.051397 -0.217964 -0.101695 0.049162 -0.159848 -0.001192 0.101622 -0.050663 -0.060335 0.290742 -0.117662 0.198491 0.079569 0.028291 0.094543 -0.229423 0.076149 -0.037201 -0.028555 -0.021308 0.001202 0.025594 -0.129530 -0.135969 0.004318 0.177061 -0.023687 0.309006 0.084173 -0.142770 0.090084 -0.042787 -0.026153 0.004929 -0.042012 0.047707 0.258270 -0.235259 -0.135916 -0.089491 0.132434 0.121632 0.109908 0.214442 0.063880 -0.130391 0.022097 -0.234441 -0.140577 0.084929 0.060358 -0.147713 -0.162916 0.006151 0.261826 0.003571 0.077144 -0.062393 -0.241506 -0.160170 0.019644 0.006148 -0.001973
66 -0.003121 -0.076480 -0.051297 -0.086050 -0.056551 0.017744 0.049135 -0.046170 -0.093973 -0.046382 0.024493 0.186456 -0.005321 0.012578 -0.018029 -0.076288 -0.117441 -0.096566 -0.030570 0.188193 0.113624 -0.008667 -0.076266 0.275996 0.138446 -0.042530 0.014140 0.056328 -0.077253 -0.061251 -0.136278 0.003219 0.011082 -0.141413 -0.111002 -0.094872 0.123995 -0.016290 0.050490 0.041654 -0.030681 0.015922 -0.047106 0.064168 -0.014838 0.204581 -0.025971 0.007535 -0.292269 0.019625 0.102635 0.051505 -0.012617 -0.178562 0.207752 -0.173736 -0.101435 -0.140277 -0.122153 -0.181237 -0.024738 -0.202740 0.008839 -0.008453 -0.003995 -0.001462 -0.150342 0.013087 0.053573 -0.024849 -0.009275 -0.171256 0.147191 -0.261309 0.091894 -0.209710 0.036878 -0.125310 -0.039231 -0.105182 0.036670 -0.137744 -0.091328 -0.136720 -0.052465 0.043267 0.079245 -0.067629 0.037714 -0.004630 0.060741 -0.036092 0.061543 0.227865 -0.203520 0.066693 -0.046004 0.104838 -0.100262 0.086492 -0.068197 0.144861 -0.119402 -0.086495 -0.116057 0.127084 0.065740 0.085227 -0.084925 0.196311 0.020283 -0.041063 -0.022159 -0.142961 -0.035647 0.067774 -0.119022 0.137977 -0.093658 0.095399 -0.095326 -0.049101 -0.100866 0.061976 0.052593 0.073738 -0.122622 0.105724
31 0.328503 -0.130468 -0.141878 0.180502 -0.175670 -0.136768 0.201933 -0.092200 0.141221 0.133165 0.109264 0.276125 0.085018 -0.241155 0.070942 -0.193832 -0.223632 -0.010333 0.054700 0.167891 0.134301 -0.217613 -0.033859 0.066291 0.354870 0.021476 -0.004987 -0.137301 -0.157063 0.191629 0.019812 -0.018205 0.058062 -0.156571 0.070884 0.143832 -0.283538 0.168759 0.049631 -0.294665 0.142145 0.302158 -0.004045 -0.137891 -0.052627 0.150467 -0.007777 -0.183462 0.078538 0.157339 -0.363871 0.188080 0.063215 -0.244347 0.185549 -0.146746 -0.031494 -0.238219 0.053598 -0.225191 0.284812 -0.275137 0.170825 0.038663 0.027213 0.012097 -0.184049 -0.159258 0.072541 -0.121707 -0.013156 0.079241 0.037538 -0.147445 0.314852 -0.101401 0.269329 -0.006066 0.022683 0.100499 -0.228760 0.102641 -0.027745 -0.048765 -0.123517 0.021688 -0.014964 -0.169904 -0.101560 -0.047742 0.127535 -0.008111 0.315978 0.054739 -0.170337 0.088537 -0.044203 0.000192 0.033089 -0.064403 0.038693 0.264089 -0.155642 -0.104972 -0.058632 0.115144 0.116471 0.042743 0.199834 0.019674 -0.175574 0.008887 -0.261478 -0.139680 0.156547 0.049789 -0.192738 -0.133471 0.010506 0.258258 0.026558 0.082026 -0.080635 -0.282548 -0.154841 0.001242 -0.018186 -0.027671
24 0.192588 -0.074102 0.136154 0.218747 -0.250748 0.024564 0.251855 -0.341130 0.277671 0.135543 0.169417 0.380290 0.034764 -0.185907 -0.146201 -0.341331 -0.179405 -0.139531 -0.061120 0.063295 0.202668 -0.120239 -0.189873 0.135608 0.314378 0.198876 -0.243682 -0.095403 -0.111339 0.025905 -0.148303 -0.048379 -0.199484 -0.122879 0.150678 0.057795 -0.065929 0.062351 0.157634 -0.422616 -0.257087 0.405056 0.415138 0.024061 -0.065876 -0.021683 0.038795 -0.254488 -0.081410 -0.002665 -0.206270 0.112105 -0.133300 -0.164731 0.209277 -0.252853 0.139912 -0.154259 0.010075 -0.411844 0.137395 -0.256870 0.320236 -0.111873 -0.156588 -0.136550 -0.309983 0.062056 0.066834 -0.100272 -0.062828 0.110272 -0.098924 -0.162126 0.218558 -0.212722 0.224158 0.016029 -0.161620 0.302947 0.041678 0.008741 0.091973 -0.168152 -0.203145 -0.077975 0.213914 0.006478 -0.396922 0.318027 0.003783 0.165725 -0.156179 -0.164928 -0.392244 0.156058 0.060857 0.043940 0.191216 0.247988 0.268194 0.227260 -0.097563 -0.285560 -0.004259 0.071104 0.312196 0.239895 0.150863 0.083602 0.019223 -0.269560 -0.214949 -0.021985 -0.055947 0.271337 -0.087076 0.189898 0.007529 0.257334 0.261573 -0.193566 0.005770 -0.251292 -0.103863 0.156983 0.024458 0.158081
35 0.177569 -0.100163 0.125532 0.207528 -0.271077 0.033510 0.212355 -0.341788 0.276070 0.103176 0.149497 0.396512 -0.003905 -0.171571 -0.117136 -0.361004 -0.226086 -0.154117 -0.035180 0.057803 0.193861 -0.162814 -0.155798 0.115439 0.290724 0.158504 -0.183984 -0.109436 -0.066070 -0.006812 -0.117528 -0.087546 -0.207400 -0.129540 0.136640 0.078598 -0.083747 0.091871 0.195783 -0.401987 -0.285359 0.380612 0.417604 0.034917 -0.092350 -0.014193 0.070453 -0.209590 -0.082490 0.037411 -0.262151 0.086732 -0.147558 -0.181370 0.226957 -0.271547 0.086473 -0.142763 0.055763 -0.355741 0.156793 -0.241753 0.333845 -0.092481 -0.189288 -0.128081 -0.316154 0.078338 0.110993 -0.119504 -0.039145 0.082480 -0.148450 -0.088900 0.191500 -0.112247 0.280853 0.101798 -0.106355 0.248850 -0.015893 0.007369 0.058812 -0.211924 -0.185720 -0.068528 0.274862 -0.022418 -0.380510 0.293055 0.058612 0.129521 -0.159215 -0.115025 -0.402715 0.142222 0.069701 0.026740 0.193595 0.227914 0.291461 0.202180 -0.157213 -0.311429 -0.009110 0.028912 0.278390 0.221198 0.167131 0.059800 -0.031430 -0.190075 -0.233694 -0.029724 -0.039391 0.273966 -0.064858 0.188182 -0.079040 0.223241 0.209658 -0.191192 0.051059 -0.265100 -0.139128 0.146691 0.026199 0.105753
43 -0.022844 -0.055716 0.029863 -0.005306 -0.132290 -0.101061 0.313913 -0.099633 0.315410 0.149319 0.078854 0.201067 -0.072164 -0.176148 0.024694 0.012490 -0.246513 -0.090198 -0.034196 -0.078675 0.151986 -0.137978 0.071061 -0.042209 0.212360 -0.010586 -0.127302 -0.156520 -0.120779 0.168620 0.086954 0.078707 0.138744 -0.198050 0.040345 0.026208 -0.242514 0.189637 -0.133218 -0.111500 0.008284 0.366512 0.135932 -0.214193 -0.001359 0.357539 0.245729 -0.228428 0.091261 0.193540 -0.279105 0.254973 0.119987 -0.231494 -0.170193 -0.369260 0.006000 -0.165692 -0.010711 -0.245870 0.358120 -0.109170 -0.004700 0.017554 0.160077 0.059820 0.038605 -0.209280 0.075163 -0.080603 0.136315 -0.020180 0.131311 0.228711 0.191430 -0.022036 0.111985 0.073133 -0.010484 0.146841 -0.027774 0.156446 0.045262 -0.251306 -0.231609 -0.003816 -0.034914 -0.267972 -0.216574 -0.004987 0.221808 0.320424 0.180761 0.121568 -0.339029 0.070956 0.067112 -0.103317 0.104294 0.119084 0.093598 0.181725 -0.236382 -0.029882 0.043324 -0.004969 0.239140 0.117358 0.245891 -0.006149 -0.028794 0.249519 -0.048629 0.035724 0.062745 0.220996 -0.091002 0.070106 0.035827 0.066000 0.194716 0.114385 -0.109986 -0.310961 -0.282673 0.029962 0.006642 0.048291
28 0.308781 -0.155043 -0.112353 0.170098 -0.231019 -0.045543 0.290095 -0.045143 0.111172 0.120140 0.041951 0.235986 0.040416 -0.199193 0.057096 -0.102851 -0.184148 -0.029913 0.016287 0.101857 0.088151 -0.216112 -0.066902 0.067617 0.321628 -0.030444 0.003956 -0.070303 -0.164753 0.200624 0.018619 -0.011275 0.095565 -0.172834 0.037199 0.121476 -0.217462 0.169022 0.001556 -0.328214 0.085170 0.268655 0.067337 -0.117080 -0.049252 0.176350 0.085221 -0.240354 0.068134 0.203256 -0.349073 0.253127 0.067367 -0.244565 0.140169 -0.199706 -0.105366 -0.256358 0.090645 -0.218613 0.295552 -0.267522 0.147684 -0.010859 0.080547 -0.029059 -0.178617 -0.099510 -0.018492 -0.208125 0.009977 0.027729 0.005610 -0.083357 0.234524 -0.103440 0.268860 0.012820 -0.011954 0.074437 -0.188355 0.065789 -0.033965 -0.019002 -0.101787 0.019698 -0.035121 -0.148207 -0.136777 -0.043360 0.156342 0.034550 0.310162 0.136307 -0.207410 0.122707 -0.021629 -0.023489 -0.001131 0.003600 0.054518 0.238795 -0.214793 -0.163751 -0.075965 0.077975 0.120029 0.096604 0.163292 0.053720 -0.072294 0.028377 -0.225218 -0.202227 0.151765 0.084897 -0.209681 -0.017010 -0.099976 0.306442 0.011484 0.105480 -0.074243 -0.257500 -0.198689 0.018458 -0.011360 0.057233
8 0.215742 -0.094402 -0.179570 -0.070131 -0.210746 0.009201 0.265643 -0.033718 0.149081 0.016291 -0.104529 0.109603 0.040848 -0.140749 0.003815 -0.023281 -0.091842 -0.033386 -0.066580 0.103833 0.186820 0.003758 0.004677 0.178544 0.138019 -0.065045 -0.116522 -0.048985 -0.211410 0.208278 0.089150 -0.018646 0.112637 -0.293213 -0.088452 -0.011970 -0.096471 0.075073 -0.156044 -0.242981 -0.029353 0.165913 -0.025447 -0.177977 0.038496 0.383350 0.139545 -0.142043 0.015942 0.123055 -0.183479 0.257144 0.052261 -0.174129 -0.033440 -0.262334 -0.047537 -0.188934 -0.042076 -0.117884 0.110821 -0.196733 0.112004 -0.012226 0.147305 -0.008547 -0.025828 -0.112538 -0.116555 -0.184741 0.035023 0.042013 0.032331 0.080499 0.211661 -0.057456 0.031621 0.001426 -0.026159 0.067543 -0.090433 0.038267 0.053399 -0.123361 -0.179031 0.071113 -0.063871 -0.185257 -0.192260 -0.127195 0.229923 0.109360 0.333280 0.158081 -0.341147 0.110453 0.005221 -0.004879 0.061395 0.090617 -0.013535 0.150922 -0.263477 -0.081723 0.013012 0.085558 0.110101 0.073993 0.159098 0.054876 -0.043701 0.053951 -0.080850 -0.180304 0.027527 0.076410 -0.139122 0.050579 0.023382 0.136879 0.061435 0.034529 -0.031860 -0.349421 -0.076681 0.035410 -0.015025 0.019719
9 0.032946 -0.068414 -0.073179 -0.152070 -0.148503 0.021223 0.343120 -0.066790 0.094238 -0.002318 -0.143919 0.103903 0.028407 -0.191369 -0.143556 -0.134497 -0.098748 -0.047186 -0.166826 0.080812 0.108864 0.177630 0.111583 0.167777 0.022346 0.010624 -0.209101 0.148287 -0.171985 0.252975 0.117178 0.026363 -0.077003 -0.249417 -0.092130 -0.045536 0.052600 0.095388 -0.144354 -0.210849 -0.139011 0.120942 0.163957 -0.080139 -0.096822 0.359388 0.209141 -0.195553 -0.060513 0.065808 -0.207563 0.226569 -0.028620 -0.130926 -0.153942 -0.416167 -0.002368 -0.060337 -0.227608 -0.092932 -0.029201 -0.094024 0.032651 -0.038757 0.110090 0.010651 0.080301 -0.025680 -0.159060 -0.202732 0.087057 0.182565 0.099694 0.011392 0.284601 -0.172356 0.056896 0.029944 -0.025777 0.184569 0.107566 -0.053836 -0.069831 -0.190554 -0.119792 0.223250 0.004674 -0.134020 -0.234770 -0.080040 0.183624 0.257367 0.273347 0.058743 -0.544146 0.114556 0.002941 0.052414 0.054605 0.272573 -0.105996 0.127025 -0.412315 -0.184108 0.061108 0.111664 0.278231 0.268330 0.022359 0.029406 -0.097255 0.047813 0.016933 -0.122980 -0.141436 0.159868 -0.183144 0.236086 -0.025882 0.052287 0.023591 -0.212487 -0.101596 -0.334903 -0.101392 0.244841 -0.050519 0.157211
29 0.169055 -0.105540 -0.122937 -0.047418 -0.040112 -0.113027 0.065961 -0.157361 0.134454 -0.127256 0.054236 0.181708 -0.026768 0.003260 -0.135337 -0.176369 -0.144920 -0.119129 -0.001463 0.115698 0.145763 0.024366 -0.105553 0.239503 0.082283 -0.101505 -0.019640 0.000485 -0.141653 0.050843 -0.034384 -0.079259 -0.052405 -0.230504 -0.045735 0.091107 0.028033 0.123050 0.076084 -0.136697 -0.021175 0.076018 -0.110614 -0.117247 -0.080804 0.088429 0.063100 0.057226 -0.104609 0.065835 -0.225517 0.218626 0.080776 -0.217653 0.180218 -0.273009 0.002769 -0.076826 -0.037479 -0.039023 -0.003518 -0.270383 0.168336 0.038307 -0.187125 0.061766 -0.017260 -0.084716 -0.070982 -0.158178 0.017236 0.025382 -0.114983 -0.033881 0.129629 -0.054014 0.034338 -0.199792 -0.088061 0.017236 0.003756 -0.079566 -0.049238 -0.115675 -0.139827 0.096036 0.107275 0.037014 -0.018759 -0.177940 0.065960 -0.071325 0.102492 0.160033 -0.201881 0.090443 -0.059946 0.033205 0.096225 0.181712 -0.103660 0.205335 -0.238406 -0.099464 -0.042103 0.124733 0.294957 0.013130 0.088406 0.119567 -0.268804 -0.060875 -0.156400 -0.125672 -0.000951 0.044302 -0.043271 -0.011400 0.099119 0.032072 0.007622 -0.044774 -0.138472 -0.335189 -0.058865 0.127829 -0.201829 -0.088132
44 0.228161 -0.060038 -0.141658 -0.048443 -0.065084 -0.133544 0.072137 -0.288587 0.244350 -0.095378 0.086348 0.209252 -0.023818 -0.036830 -0.112305 -0.263979 -0.172720 -0.143534 -0.036964 0.139786 0.178532 0.006362 -0.093058 0.173358 0.132053 -0.030780 -0.057219 -0.123282 -0.124387 0.027760 0.007492 -0.118512 -0.148630 -0.269752 0.028306 0.134433 -0.038530 0.154734 0.085364 -0.209760 -0.078629 0.157367 -0.070462 -0.094337 -0.120563 0.089925 0.016438 0.114930 -0.011270 0.026697 -0.344083 0.202294 0.066175 -0.227892 0.238347 -0.287607 0.131156 -0.129675 -0.073352 -0.138973 0.066138 -0.263181 0.321899 0.059820 -0.272039 0.070423 -0.028718 -0.103485 0.033574 -0.068404 -0.004816 0.173855 -0.120846 -0.115502 0.349255 -0.111534 0.001609 -0.174101 -0.069752 0.089120 -0.067004 0.032078 -0.030695 -0.106606 -0.218944 0.027428 0.146038 -0.013731 -0.095108 -0.093613 0.090962 -0.068866 0.096089 0.031406 -0.235188 0.071997 0.065903 0.040508 0.196699 0.164056 -0.056297 0.205036 -0.205557 -0.006674 -0.026283 0.126692 0.281078 -0.005605 0.164255 0.042932 -0.367024 -0.124408 -0.226905 -0.022530 -0.062354 0.118267 -0.042824 -0.017117 0.202147 -0.006624 0.035225 -0.076299 -0.070298 -0.348220 -0.063801 0.133571 -0.114505 -0.122058
60 -0.107501 -0.004998 0.097528 -0.104161 -0.236953 0.006639 0.360888 -0.172385 0.279005 0.119074 -0.021226 0.187124 0.006303 -0.182424 -0.105718 -0.075626 -0.225843 -0.128340 -0.151387 -0.098748 0.102121 0.008937 0.121156 0.002325 0.091217 0.188286 -0.248929 0.063724 -0.118199 0.174035 0.041345 0.138963 0.043818 -0.206762 0.029130 -0.023321 -0.133724 0.165316 -0.111554 -0.126525 -0.150359 0.320029 0.284032 -0.137630 -0.024507 0.360874 0.231246 -0.274096 -0.026907 0.122033 -0.210953 0.191180 -0.031367 -0.198069 -0.238320 -0.444432 0.052397 -0.076365 -0.177691 -0.253870 0.181131 -0.075222 -0.022619 -0.078005 0.157297 0.016894 0.060159 -0.058572 -0.045470 -0.064092 0.115430 0.079655 0.205152 0.135698 0.232852 -0.151533 0.085380 0.087398 -0.012441 0.308431 0.184390 0.102412 0.064615 -0.332593 -0.232608 0.099925 -0.035508 -0.218222 -0.347360 0.033938 0.168448 0.416454 0.031620 0.008536 -0.514333 0.082655 0.126307 -0.014631 0.112359 0.307208 0.111885 0.138155 -0.279793 -0.099564 0.118949 0.041957 0.318305 0.286555 0.142546 -0.007016 0.030249 0.109162 -0.019474 0.061251 -0.060159 0.274307 -0.216008 0.291602 -0.004505 0.052141 0.230600 -0.089064 -0.123548 -0.303110 -0.195734 0.139636 0.011825 0.210854
36 0.184706 -0.180164 -0.125877 0.133797 -0.094868 -0.098436 0.252708 0.080021 0.101919 0.132532 0.068873 0.191573 0.010327 -0.186554 0.089900 -0.071909 -0.120444 0.008093 0.012773 0.040396 0.113644 -0.181058 -0.014539 0.057615 0.329321 -0.087884 -0.019352 -0.077812 -0.109933 0.176993 0.046983 -0.053694 0.058796 -0.130334 0.060838 0.080472 -0.142333 0.124233 -0.100515 -0.213698 0.105966 0.262216 0.106387 -0.101140 -0.073392 0.247638 0.155191 -0.213377 0.082860 0.155139 -0.237809 0.196500 0.069499 -0.154439 0.029660 -0.187398 -0.013771 -0.181139 0.040835 -0.193530 0.268130 -0.154142 0.011454 0.033471 0.023771 -0.009820 -0.187718 -0.093596 0.093919 -0.106690 -0.024377 0.014181 0.082221 -0.072087 0.269656 -0.126375 0.207263 -0.019522 -0.008581 0.028675 -0.173013 0.067172 -0.075521 0.002543 -0.051275 -0.031424 0.065058 -0.175006 -0.106376 0.051452 0.183251 0.024226 0.257283 0.130413 -0.189920 0.083355 -0.026273 -0.121041 -0.000274 0.007476 -0.000314 0.213852 -0.174050 -0.069278 -0.085364 0.113397 0.126417 0.109830 0.103829 0.124699 0.026763 0.105518 -0.094091 -0.114873 0.072972 0.058036 -0.124437 -0.091127 -0.052187 0.142424 0.004799 0.084097 -0.077873 -0.198381 -0.193922 0.017077 -0.050947 0.072987
2 0.127725 -0.217680 -0.068392 -0.021628 -0.145895 -0.033843 0.237233 0.083449 0.038336 0.032263 -0.182440 0.244081 0.210799 -0.271239 -0.095311 -0.285178 -0.100572 0.077713 -0.111136 0.230816 0.173696 0.160277 0.244777 0.272701 0.108315 0.087107 -0.196727 0.195267 0.027199 0.333353 0.103864 -0.139820 -0.229956 -0.142632 -0.083932 -0.112202 0.113875 -0.049305 -0.089534 -0.218647 -0.043631 0.141912 0.204736 -0.028491 -0.184087 0.441533 0.152828 -0.207310 0.037336 -0.133290 -0.152152 0.052043 -0.073506 0.095844 -0.198885 -0.245527 0.063529 0.053524 -0.208305 0.015978 -0.113157 -0.151856 0.057702 -0.028247 0.052350 0.067654 -0.015744 0.089908 -0.040857 -0.192930 -0.046625 0.176489 -0.004631 -0.015615 0.254882 0.073518 0.201719 0.123361 0.080376 0.092266 -0.032783 -0.103609 -0.083615 -0.211961 -0.105157 0.175229 0.239255 -0.054160 -0.158128 0.027914 0.196964 0.165882 0.304669 -0.119523 -0.709552 0.226160 -0.193379 0.079223 0.060843 0.252786 -0.153020 0.285518 -0.409481 -0.305915 0.014211 0.163072 0.202452 0.327498 -0.096018 0.039549 0.003321 0.072867 0.119662 -0.225691 -0.228723 0.026933 -0.211709 0.119518 -0.205324 0.070009 0.008164 -0.431197 0.072308 -0.315172 -0.045216 0.149848 -0.042577 0.227695
4 0.137281 -0.098526 -0.030982 0.074806 -0.225632 0.062130 0.270163 -0.123453 0.131134 0.018287 -0.016414 0.216219 0.037428 -0.233031 -0.154562 -0.239714 -0.097057 -0.061487 -0.098011 0.099455 0.188022 0.089875 -0.036420 0.190261 0.158159 0.075891 -0.264302 0.023364 -0.171767 0.132922 0.006231 -0.091877 -0.154879 -0.212668 -0.000542 0.007570 -0.017838 0.052516 -0.045775 -0.353610 -0.218313 0.255978 0.320458 -0.038411 -0.092106 0.197617 0.168401 -0.279597 -0.020891 -0.047115 -0.205485 0.142917 -0.143247 -0.057877 -0.020709 -0.337802 0.082913 -0.028919 -0.080181 -0.139691 -0.000012 -0.082048 0.205625 -0.108239 -0.046546 -0.061628 -0.098429 0.084498 -0.104148 -0.277587 0.004694 0.178769 -0.092934 0.058737 0.161921 -0.059319 0.154624 0.095818 -0.038435 0.226415 0.057720 -0.021099 0.029119 -0.134942 -0.091293 0.056921 0.139442 -0.038470 -0.310504 0.121222 0.129211 0.195691 0.118167 -0.091957 -0.512505 0.144228 0.000337 0.026725 0.100981 0.287658 0.082471 0.177165 -0.315914 -0.312973 0.002126 0.152440 0.245787 0.309475 0.086861 0.044809 -0.024355 -0.024290 -0.015440 -0.106756 -0.107604 0.213297 -0.059552 0.133232 -0.005730 0.133463 0.143484 -0.263761 -0.072022 -0.414375 -0.140626 0.184761 -0.027860 0.179200
63 0.168296 -0.025134 -0.175392 -0.137221 0.059996 -0.147035 0.090321 -0.108188 0.259809 -0.135573 -0.038222 0.090911 -0.004638 -0.034784 -0.116958 -0.182514 -0.103653 -0.146615 -0.112238 0.159348 0.239937 0.080606 -0.034982 0.184732 0.080706 -0.093652 -0.125896 -0.141353 -0.145252 0.075150 0.077442 -0.057159 -0.050390 -0.267321 -0.067539 0.008584 0.131252 0.093886 -0.075022 -0.086984 -0.094987 0.083675 -0.158870 -0.130636 -0.106964 0.187885 0.007183 0.107392 -0.015194 0.095598 -0.227539 0.167644 0.124014 -0.123468 0.192846 -0.284614 0.132611 -0.176275 -0.118869 -0.188030 -0.005224 -0.194162 0.213197 0.071823 -0.165658 0.093571 -0.045827 -0.121930 0.014282 -0.008658 -0.056647 0.110784 -0.070346 -0.149725 0.395961 -0.152410 -0.135789 -0.193604 -0.119556 -0.019410 -0.016509 0.033089 0.018036 -0.160886 -0.117860 -0.009099 0.213008 -0.047140 -0.088639 0.022552 0.130359 -0.103757 0.143475 0.081109 -0.241215 0.077210 0.050015 0.008209 0.184034 0.233499 -0.116596 0.155489 -0.242952 0.124264 0.003722 0.218896 0.252421 -0.018319 0.094249 0.143661 -0.229219 -0.085409 -0.083104 -0.012131 -0.174001 0.050977 0.076480 -0.033502 0.295802 -0.096108 0.053828 -0.061997 -0.107771 -0.312785 -0.027372 0.106656 -0.097387 -0.189477
65 0.196665 -0.194412 -0.163763 0.094286 -0.124595 -0.144121 0.265118 0.034228 0.124771 0.097804 0.117936 0.242962 0.024913 -0.064310 0.084050 -0.046372 -0.116556 0.018659 0.040972 0.060600 0.099800 -0.214590 -0.079067 0.066647 0.349264 -0.105093 0.000614 -0.049319 -0.096300 0.146136 0.037400 -0.084656 0.092445 -0.166649 0.099413 0.140384 -0.161576 0.161045 -0.064946 -0.172515 0.163813 0.229310 0.008255 -0.158691 -0.054425 0.235383 0.180403 -0.112603 0.074660 0.126164 -0.272863 0.232236 0.128993 -0.184581 0.040076 -0.179562 -0.013925 -0.188949 0.067585 -0.195261 0.296032 -0.216993 0.044203 0.050060 -0.023269 0.038900 -0.175261 -0.159629 0.115756 -0.080676 -0.058034 0.012519 0.076493 -0.070784 0.278518 -0.094406 0.154133 -0.115700 -0.033959 0.035091 -0.187906 0.085003 -0.092596 0.064820 -0.131598 -0.040148 0.063122 -0.162932 -0.057532 -0.031659 0.157456 -0.005514 0.229731 0.179540 -0.142388 0.054948 0.009549 -0.118805 0.037328 -0.013663 -0.034665 0.229425 -0.151716 0.011517 -0.099049 0.089350 0.149759 0.012403 0.102954 0.155950 -0.017318 0.073781 -0.099720 -0.079945 0.106371 0.043650 -0.173863 -0.037133 -0.036611 0.129755 -0.004714 0.170692 -0.056359 -0.160518 -0.182548 0.006580 -0.085845 0.076004
45 0.105035 -0.061418 -0.093842 0.072884 -0.136543 -0.076838 0.251306 0.018283 0.182053 0.106797 0.033422 0.197609 0.011764 -0.167863 0.071314 -0.041482 -0.165534 -0.034898 -0.019152 0.047448 0.126554 -0.146684 -0.042918 -0.009116 0.297522 -0.007570 -0.127098 -0.148280 -0.165763 0.146590 0.084197 0.052352 0.138137 -0.208546 0.096603 0.105123 -0.188389 0.157581 -0.114190 -0.123706 0.064725 0.310869 0.059306 -0.200210 -0.030866 0.246946 0.129234 -0.162988 0.062988 0.147270 -0.225188 0.156175 0.040535 -0.115456 0.041226 -0.243515 -0.001162 -0.186621 0.016398 -0.290569 0.301157 -0.116986 0.103236 -0.011611 0.057772 0.022694 -0.133187 -0.147476 0.091300 -0.088352 -0.007737 0.034940 0.054809 0.068989 0.280999 -0.035184 0.073898 0.033027 -0.002562 0.079061 -0.042707 0.182317 0.037020 -0.087640 -0.077379 -0.090843 0.044536 -0.196431 -0.131710 0.096356 0.207092 0.123832 0.234361 0.102121 -0.244810 0.066323 0.096204 -0.050013 0.019642 0.087933 0.063356 0.201026 -0.233758 0.035555 -0.066595 0.136860 0.094176 0.084925 0.209690 0.092855 -0.004253 0.173688 -0.065144 -0.012537 0.028198 0.121582 -0.086463 -0.057605 0.102893 0.149068 0.126666 0.095444 -0.085284 -0.247649 -0.212686 -0.041172 0.009521 0.067322
3 0.124675 -0.233027 -0.085596 0.136603 -0.048315 -0.060652 0.244017 0.197663 -0.045606 0.010330 -0.155548 0.149191 0.155662 -0.387727 -0.080705 -0.252689 -0.041027 0.029498 -0.062387 0.223230 0.089580 0.124656 0.202967 0.286485 0.227640 0.020661 -0.133570 0.173184 -0.069013 0.361514 0.063574 -0.060969 -0.179408 -0.125077 -0.095839 -0.122953 0.099249 -0.050678 -0.129170 -0.234821 0.001568 0.162339 0.218700 -0.058924 -0.262024 0.290578 0.098269 -0.386073 0.011857 0.051822 -0.166567 0.134389 -0.075865 0.004277 -0.090923 -0.325197 0.053439 -0.005268 -0.145478 -0.072666 -0.131232 -0.186323 -0.043738 0.003153 0.028114 -0.037803 -0.032501 0.171558 -0.140365 -0.224738 -0.013858 0.125715 -0.176388 0.124085 0.057904 0.055798 0.155116 0.213619 0.139466 0.073459 -0.021151 -0.097092 -0.092071 -0.221366 0.148218 0.138459 0.186245 0.017356 -0.183822 0.086972 0.165208 0.106665 0.305132 -0.032680 -0.581941 0.222996 -0.270458 -0.003049 0.003441 0.272260 -0.162767 0.278664 -0.443722 -0.385403 0.002460 0.268141 0.210465 0.407995 -0.033798 0.160088 0.068692 0.091199 0.091382 -0.245296 -0.209177 0.020766 -0.075738 -0.071802 -0.150928 0.185915 0.045400 -0.341036 -0.034040 -0.325648 -0.109932 0.118047 -0.024030 0.138104
14 0.114044 -0.043861 -0.105281 -0.148883 -0.204042 0.056497 0.289445 -0.071817 0.093297 -0.011393 -0.177772 0.083498 0.063022 -0.174476 -0.104516 -0.131759 -0.077626 -0.044441 -0.170865 0.085658 0.177703 0.170830 0.070580 0.165377 0.009152 0.037133 -0.229203 0.081468 -0.184210 0.236257 0.144379 -0.018761 -0.034325 -0.251394 -0.059679 -0.035317 -0.002047 0.090976 -0.161196 -0.264082 -0.146808 0.123516 0.105982 -0.095872 -0.045238 0.350587 0.175624 -0.151468 0.001305 0.024278 -0.185304 0.160133 -0.074956 -0.054644 -0.082560 -0.331302 0.000370 -0.069468 -0.153316 -0.096202 -0.019254 -0.050321 0.155073 -0.089323 0.096536 0.001109 0.022733 -0.026500 -0.145799 -0.213882 0.008924 0.199164 0.050611 -0.014098 0.324663 -0.136376 0.044606 0.013768 -0.042955 0.120473 0.036942 0.031220 0.040063 -0.127793 -0.127321 0.138621 0.024134 -0.155466 -0.237880 -0.029767 0.182199 0.201656 0.303704 -0.007217 -0.516549 0.154843 0.037491 0.091239 0.092235 0.227207 -0.024515 0.138990 -0.357329 -0.135961 0.039382 0.152511 0.173966 0.219545 0.057131 -0.005324 -0.059886 0.014584 -0.000717 -0.129120 -0.117506 0.132537 -0.155173 0.187869 0.039373 0.078665 0.059425 -0.197507 -0.087274 -0.404703 -0.091422 0.189819 -0.041733 0.152911
57 0.091956 -0.037478 -0.163403 -0.130276 0.021854 -0.122767 0.033632 -0.169075 0.199753 -0.097795 0.017998 0.110949 -0.026739 -0.060958 -0.106388 -0.195936 -0.116522 -0.146035 -0.062810 0.104337 0.210609 0.105065 0.006254 0.193728 0.080140 -0.038922 -0.105782 -0.086401 -0.148545 0.040922 0.025136 -0.054645 -0.102882 -0.287101 -0.061398 0.031514 0.064683 0.089511 -0.052111 -0.073643 -0.123625 0.135097 -0.061835 -0.100189 -0.101703 0.221697 0.055277 0.068027 -0.028713 0.014625 -0.205887 0.178143 0.027182 -0.142791 0.113284 -0.319920 0.162819 -0.067688 -0.162664 -0.069603 -0.009455 -0.139001 0.159798 0.102735 -0.195221 0.071244 -0.007111 -0.063161 0.000746 -0.045008 0.040907 0.147483 -0.052959 -0.031049 0.299171 -0.106942 -0.084952 -0.108952 -0.030653 0.096822 0.019650 0.031356 0.007000 -0.170228 -0.147839 0.047709 0.143596 -0.038597 -0.093258 -0.051968 0.122447 -0.029099 0.098639 0.051955 -0.261893 0.038581 0.050827 0.008952 0.147566 0.209526 -0.118503 0.180665 -0.250574 0.032998 -0.007923 0.215042 0.285018 0.075138 0.120264 0.092583 -0.227815 -0.027689 -0.105164 0.017932 -0.137713 0.114537 0.021016 -0.046412 0.257919 -0.104740 0.052975 -0.162834 -0.167125 -0.373644 -0.056745 0.131415 -0.164490 -0.096339
20 0.153870 -0.060868 -0.244192 -0.168783 -0.039034 -0.052765 -0.038908 -0.188230 0.161040 -0.186333 0.040080 0.077266 -0.074256 -0.022966 -0.112001 -0.144504 -0.097629 -0.123882 -0.070195 0.060322 0.255424 0.162778 -0.058879 0.300962 -0.003571 -0.084886 -0.045668 -0.115620 -0.209968 -0.087333 -0.043808 -0.157370 -0.107789 -0.378220 -0.118323 0.045611 0.069590 0.052557 -0.048031 -0.076298 -0.166088 0.089143 -0.110846 -0.066092 -0.025556 0.287148 0.092989 0.109905 -0.039147 -0.068559 -0.167418 0.220983 -0.011265 -0.182168 0.160022 -0.375851 0.094923 -0.039305 -0.146708 0.073872 -0.022798 -0.115552 0.173375 0.076989 -0.252357 0.084760 0.027857 -0.029757 -0.050580 -0.133077 0.082414 0.133723 -0.038714 -0.003400 0.221404 -0.056156 -0.030169 -0.160894 -0.036639 0.025986 0.009783 0.010139 0.005164 -0.145029 -0.261216 0.074147 0.080159 -0.026472 -0.039210 -0.185480 0.170535 -0.074767 0.154620 0.110613 -0.258370 0.027246 0.102470 -0.013922 0.111741 0.224851 -0.161768 0.166518 -0.228743 -0.006481 -0.054516 0.169069 0.232158 0.008661 0.140923 0.060958 -0.287452 0.002810 -0.104623 -0.061112 -0.049471 0.129096 -0.001663 -0.024596 0.257263 -0.149686 -0.017207 -0.161685 -0.151605 -0.439034 -0.054751 0.135011 -0.214556 -0.086381
38 0.154925 -0.236645 -0.048321 0.206016 -0.043781 -0.088314 0.190127 0.147558 0.021896 0.081000 -0.106781 0.203424 0.181577 -0.361196 -0.057587 -0.227531 -0.043487 0.038225 0.000235 0.220438 0.103591 0.032237 0.167369 0.264171 0.295333 0.042667 -0.072552 0.081605 -0.004293 0.327989 0.013437 -0.067418 -0.176608 -0.099579 -0.098471 -0.141609 0.096274 -0.096131 -0.073910 -0.229821 -0.004215 0.203415 0.243376 -0.043443 -0.234847 0.245648 0.055014 -0.381269 0.042929 0.002791 -0.134888 0.094513 -0.057494 -0.014250 -0.051693 -0.248384 0.110518 -0.061596 -0.128237 -0.092204 -0.060902 -0.250396 -0.016092 0.047783 0.025909 -0.026176 -0.116837 0.175383 -0.080680 -0.137192 -0.011146 0.078271 -0.167787 0.046151 0.052393 0.044747 0.198886 0.226117 0.112195 0.083692 -0.081809 -0.105737 -0.047557 -0.222235 0.107428 0.062898 0.217278 0.036391 -0.186147 0.154652 0.138200 0.069992 0.221692 -0.067890 -0.513504 0.183096 -0.270972 -0.024535 0.009266 0.237428 -0.124944 0.289503 -0.335447 -0.352186 -0.021955 0.223324 0.202036 0.379563 -0.016217 0.185175 0.113677 0.031877 0.049370 -0.207296 -0.204209 0.029848 -0.029050 -0.094791 -0.158166 0.205994 0.084291 -0.356198 -0.013902 -0.242795 -0.101158 0.077230 -0.054122 0.116013
54 0.119489 -0.041270 -0.228895 -0.065633 0.083614 -0.150039 -0.032482 -0.105209 0.097751 -0.183141 0.027525 0.103738 -0.020696 -0.068375 -0.079852 -0.195329 -0.122979 -0.172425 0.005990 0.182158 0.193795 0.083823 -0.035580 0.255164 0.114880 -0.136932 -0.048758 -0.125349 -0.196846 0.027892 0.025676 -0.056720 -0.067307 -0.303478 -0.061357 0.066721 0.059315 0.109836 -0.026692 -0.051665 -0.047493 0.107740 -0.204167 -0.150317 -0.137073 0.127597 -0.011212 0.109410 -0.064460 0.067868 -0.187147 0.184811 0.049555 -0.184401 0.265836 -0.310335 0.130116 -0.097537 -0.099730 -0.073587 -0.020851 -0.188617 0.186498 0.121307 -0.260946 0.058897 -0.019619 -0.062476 -0.035191 -0.064241 0.031716 0.075456 -0.167082 -0.005154 0.228209 -0.076223 -0.147846 -0.136664 -0.032005 -0.009565 -0.023225 0.028932 -0.026771 -0.143767 -0.001080 0.025502 0.138261 0.016469 0.010183 -0.108390 0.112205 -0.140086 0.137914 0.154336 -0.160060 0.057501 -0.009047 -0.001302 0.113038 0.169975 -0.163582 0.190262 -0.260717 0.037288 -0.072214 0.260908 0.257849 0.040133 0.140671 0.158253 -0.280596 -0.011120 -0.155689 -0.016786 -0.124409 0.072262 0.082191 -0.182939 0.285800 -0.041187 0.009006 -0.101936 -0.204275 -0.428124 -0.057809 0.104090 -0.194273 -0.182016
59 0.087798 -0.156199 0.080491 0.080867 -0.249230 0.018533 0.363348 -0.085677 0.320675 0.132713 0.061981 0.332917 0.042300 -0.110816 -0.148652 -0.185121 -0.099827 0.019600 -0.131232 -0.014256 0.200856 -0.046043 -0.085113 0.080358 0.216668 0.146259 -0.336518 0.028036 -0.067640 0.095445 -0.039129 -0.075988 -0.089574 -0.077932 0.129363 0.012416 -0.017525 0.027773 -0.047578 -0.283671 -0.175153 0.311265 0.407991 -0.023336 0.002404 0.203136 0.231634 -0.298207 0.016589 -0.074581 -0.178802 0.095018 -0.014869 -0.006118 -0.138078 -0.252376 0.077060 -0.034910 -0.029147 -0.284160 0.116576 -0.107502 0.105368 -0.161980 0.032161 -0.033618 -0.199664 -0.016524 0.060899 -0.147562 -0.100196 0.072608 0.119706 -0.071349 0.225453 -0.102588 0.230673 -0.068045 -0.175061 0.230689 0.091501 -0.024893 0.059110 -0.133525 -0.288730 -0.053223 0.241937 -0.084961 -0.362548 0.270893 0.105177 0.248457 -0.037358 -0.116344 -0.527420 0.134297 0.034250 -0.047606 0.174646 0.311926 0.195472 0.189844 -0.159136 -0.215538 0.046271 0.035342 0.293753 0.198315 -0.000782 0.095877 0.144175 -0.079689 0.062370 -0.071953 -0.033178 0.182757 -0.136038 0.288758 -0.062317 0.087458 0.266102 -0.138207 0.038862 -0.250392 -0.154910 0.081144 0.032033 0.243425
32 0.116494 -0.187732 0.043070 0.081264 -0.192007 0.001606 0.332950 -0.098684 0.224910 0.073768 0.048926 0.246265 0.030516 -0.172915 -0.135172 -0.256846 -0.095060 -0.044655 -0.139655 0.014737 0.167485 0.002899 0.012315 0.095784 0.185159 0.106535 -0.283389 0.053731 -0.092046 0.136727 -0.008786 -0.085939 -0.135839 -0.097741 0.072458 0.029746 -0.026256 0.067633 -0.066819 -0.330571 -0.192713 0.271106 0.376569 -0.023360 -0.109423 0.226908 0.200206 -0.320717 0.023283 0.015160 -0.267866 0.170367 -0.059541 -0.051738 -0.123610 -0.314115 0.108376 -0.027411 -0.063807 -0.225170 0.060485 -0.093756 0.080296 -0.112602 -0.070305 -0.060486 -0.144301 0.018203 -0.009824 -0.167690 -0.079949 0.154028 0.021873 -0.058584 0.261862 -0.153721 0.189960 -0.009602 -0.106322 0.198189 0.041092 -0.024076 -0.000691 -0.131042 -0.170240 0.031671 0.177625 -0.087655 -0.370897 0.166367 0.103933 0.219364 0.052098 -0.098754 -0.471320 0.156391 0.001362 -0.061649 0.163045 0.282391 0.123177 0.162392 -0.256103 -0.259336 0.045112 0.098398 0.330607 0.289747 0.041074 0.073266 0.031042 -0.063581 0.014460 -0.070626 -0.065387 0.166858 -0.100272 0.188157 -0.081412 0.067586 0.177537 -0.172854 0.025033 -0.286090 -0.144830 0.149489 0.029151 0.157755
48 0.125456 -0.123291 0.061261 0.058203 -0.256651 0.012603 0.322792 -0.135581 0.347356 0.104653 -0.024493 0.295758 0.094819 -0.118089 -0.117066 -0.206213 -0.114129 -0.070755 -0.136229 0.016812 0.223608 -0.069525 -0.073807 0.094026 0.221296 0.131177 -0.297955 -0.028445 -0.035274 0.112001 0.014268 -0.061260 -0.093061 -0.131342 0.077729 -0.021941 0.027624 0.053121 -0.050654 -0.328177 -0.245188 0.285300 0.350893 -0.044709 -0.052140 0.206403 0.190241 -0.214904 0.019984 -0.020049 -0.204569 0.110084 -0.042383 -0.023701 -0.050925 -0.215390 0.110569 -0.126764 -0.024128 -0.305284 0.134476 -0.159554 0.218848 -0.098279 -0.027426 -0.054833 -0.253892 0.034156 0.056032 -0.086771 -0.112898 0.084311 0.010838 -0.134778 0.348624 -0.150362 0.169636 -0.055147 -0.172216 0.177828 0.038869 0.025274 0.106838 -0.144305 -0.214686 -0.125303 0.280575 -0.066205 -0.375601 0.316257 0.114220 0.189758 -0.035525 -0.097901 -0.473868 0.149829 0.080072 -0.042164 0.217587 0.314279 0.191728 0.173415 -0.189328 -0.115350 0.034918 0.086212 0.258960 0.205676 0.042140 0.110820 0.136109 -0.136841 -0.026906 -0.033802 -0.137412 0.186256 -0.071266 0.246058 -0.037025 0.092438 0.262871 -0.174391 0.080357 -0.257375 -0.127456 0.094946 0.022292 0.159881
12 -0.274732 -0.124735 0.063047 -0.321085 -0.088061 -0.127586 -0.124298 -0.408718 0.039722 0.114815 0.302109 0.382394 -0.140438 0.084730 0.134083 -0.081633 -0.316730 -0.171663 0.112406 -0.115711 0.186690 -0.013603 -0.048282 0.247779 0.127640 -0.037093 0.216143 0.039230 0.151014 -0.232432 -0.187621 -0.192092 -0.265211 -0.458596 -0.041794 0.020153 0.123343 0.077640 0.176364 0.213073 -0.007389 0.155974 0.162243 0.109536 -0.000906 0.610334 0.289574 0.390669 -0.275769 -0.274387 0.135317 0.175134 -0.215531 -0.324953 0.088308 -0.360688 0.058033 0.111052 -0.287620 0.078421 0.262238 -0.184959 0.010819 0.388443 -0.362466 0.196522 -0.037758 0.006483 0.466882 0.158352 0.325014 0.093781 0.419011 -0.078622 0.475149 -0.181846 0.177349 -0.042671 0.065592 0.157646 0.101501 -0.081404 -0.238147 -0.258756 -0.576067 0.110547 0.201980 -0.171730 0.254844 -0.272657 0.261625 0.228814 -0.089974 0.163838 -0.294686 -0.130790 0.237446 -0.019307 -0.105169 -0.035780 -0.266901 0.314343 -0.141786 0.103524 -0.253624 -0.047278 0.174616 0.103902 0.147164 0.020237 -0.179013 0.270357 -0.052562 0.156143 -0.060647 0.398651 -0.442138 0.226523 -0.114801 -0.325868 -0.263632 -0.307596 0.133277 0.192478 -0.054463 0.189307 -0.284280 0.380289
33 -0.034272 -0.357994 0.073046 0.189436 0.106213 -0.271194 0.255521 0.211040 0.164582 0.137803 0.046519 0.263344 0.113849 -0.205665 -0.079207 -0.215763 -0.041512 0.037915 0.005502 0.038577 0.039658 -0.092919 0.150834 0.169906 0.363882 -0.039009 -0.076478 0.244368 0.109107 0.304949 -0.041533 -0.020649 -0.199780 0.014171 -0.009333 -0.057617 0.263086 -0.038227 -0.120135 -0.077578 0.011158 0.217200 0.375277 -0.039060 -0.275843 0.242020 0.203154 -0.347949 -0.048988 0.112117 -0.180145 0.235094 0.142617 -0.079873 -0.257133 -0.287356 0.169980 0.015855 -0.149552 -0.160859 0.050885 -0.310740 -0.283355 0.128434 -0.109373 -0.031283 -0.199387 0.110225 0.055006 0.017424 -0.026649 -0.042939 -0.035739 0.041677 0.041112 -0.061438 0.168914 0.021253 0.006517 0.147082 0.070850 -0.240090 -0.218851 -0.203085 0.062616 0.042981 0.342404 0.073241 -0.199106 0.208289 0.097677 0.128151 -0.051074 0.045448 -0.420970 0.115195 -0.289903 -0.260383 0.061065 0.358100 -0.173036 0.285584 -0.325658 -0.219263 -0.028928 0.164329 0.508569 0.418083 -0.101254 0.385053 0.179492 0.026383 0.119868 -0.076634 -0.196952 0.027043 -0.045687 -0.038544 -0.255680 -0.029323 0.113705 -0.238268 -0.023859 -0.079430 -0.144571 0.118478 -0.176808 0.107993
67 -0.265813 -0.143155 0.049588 -0.274574 -0.034174 -0.150738 -0.117466 -0.398293 0.030790 0.122083 0.331359 0.352483 -0.162603 0.012358 0.140075 -0.127095 -0.301433 -0.173191 0.116131 -0.093902 0.154564 -0.027934 -0.001595 0.241592 0.173300 -0.034518 0.228791 0.022253 0.125585 -0.219948 -0.210210 -0.196026 -0.290686 -0.465487 -0.065203 0.021289 0.105386 0.072354 0.166681 0.208169 0.008390 0.193178 0.196748 0.140183 -0.034602 0.625393 0.268546 0.331518 -0.252061 -0.239411 0.095795 0.212449 -0.209388 -0.366676 0.080477 -0.412563 0.087442 0.122821 -0.332644 0.071067 0.265176 -0.193327 -0.040736 0.422350 -0.379263 0.187291 -0.029728 0.009591 0.467973 0.155957 0.346726 0.123518 0.437613 -0.071865 0.464696 -0.212316 0.186477 0.000887 0.120497 0.178128 0.090236 -0.099539 -0.285474 -0.266108 -0.553061 0.146932 0.161217 -0.186945 0.253741 -0.295824 0.269239 0.232380 -0.055908 0.163730 -0.294221 -0.146004 0.203593 -0.041534 -0.137097 -0.048383 -0.296121 0.338405 -0.156411 0.053537 -0.264102 -0.028014 0.216390 0.160620 0.144514 0.027579 -0.224494 0.298305 -0.061834 0.155678 -0.053653 0.399794 -0.446782 0.158288 -0.103886 -0.330153 -0.289602 -0.312590 0.101616 0.201595 -0.061531 0.208068 -0.253512 0.364190
39 0.048029 -0.269907 -0.053731 0.074377 -0.033710 -0.141775 0.165658 0.155486 0.069176 0.141235 -0.073428 0.282474 0.193270 -0.283644 0.004116 -0.259260 -0.071578 0.123260 -0.015546 0.180937 0.183335 0.056673 0.234379 0.251039 0.252103 0.056011 -0.100565 0.160826 0.137996 0.302346 0.049833 -0.225974 -0.284708 -0.136204 -0.004526 -0.122028 0.178463 -0.087190 -0.110981 -0.130916 0.061126 0.216871 0.271463 -0.009706 -0.190886 0.471679 0.201489 -0.164434 0.102833 -0.181263 -0.088232 0.053391 -0.040624 0.112001 -0.212334 -0.186579 0.149794 0.113407 -0.160188 0.001991 -0.009904 -0.174009 -0.045322 0.119013 -0.050688 0.061542 -0.099487 0.139138 0.168545 -0.072401 -0.029210 0.159355 -0.021516 0.097900 0.215448 0.169705 0.193240 0.201815 0.156689 0.124727 -0.088699 -0.096033 -0.122939 -0.210630 -0.131380 0.077119 0.376532 -0.021848 -0.088949 0.142531 0.211566 0.135686 0.182054 -0.147405 -0.630404 0.151048 -0.216318 -0.049944 0.058228 0.175865 -0.208529 0.381319 -0.325667 -0.235531 -0.037284 0.161280 0.192070 0.328442 -0.099567 0.102210 0.142213 0.130946 0.181777 -0.116464 -0.240209 0.040831 -0.216637 -0.000672 -0.208110 -0.041997 0.009117 -0.427953 0.136279 -0.186706 -0.065066 0.095469 -0.074907 0.291277
41 -0.073028 -0.044706 0.076293 -0.088090 -0.178176 -0.013852 0.261674 -0.078914 0.211416 0.065553 -0.068567 0.182922 0.038052 -0.150516 -0.071450 -0.118960 -0.203363 -0.085386 -0.109524 -0.030699 0.084527 0.032349 0.121963 0.017916 0.064715 0.139162 -0.212947 0.085914 -0.035511 0.180538 0.083929 0.058171 -0.037245 -0.165157 0.011943 -0.017933 -0.021204 0.114181 -0.082368 -0.107369 -0.116930 0.208975 0.248186 -0.083628 -0.053065 0.314864 0.207571 -0.153344 -0.032517 0.048922 -0.167536 0.100246 -0.081750 -0.084267 -0.141457 -0.332378 0.013862 -0.009625 -0.133758 -0.177682 0.103343 -0.064121 0.043362 -0.028010 0.101548 0.042533 -0.018651 -0.006911 0.014398 -0.064493 0.078565 0.080173 0.136332 0.072682 0.224896 -0.055207 0.139322 0.106864 -0.001665 0.215086 0.150193 0.042652 0.024604 -0.278966 -0.158548 0.068688 0.125115 -0.152000 -0.206565 0.055469 0.167639 0.295767 0.067594 -0.000534 -0.509749 0.122715 0.066381 0.036944 0.062822 0.266267 0.053033 0.159765 -0.294273 -0.112335 0.048426 0.086796 0.225948 0.247437 0.051941 0.021849 0.016927 0.132096 0.005112 -0.008223 -0.118459 0.187499 -0.194920 0.226791 -0.065155 0.029428 0.127075 -0.184735 -0.041333 -0.223416 -0.153310 0.124109 0.006339 0.170162
42 -0.191290 -0.239107 0.071621 0.218571 0.321519 -0.287486 0.281788 0.272061 0.142424 0.035838 0.154358 0.188908 -0.082670 -0.239145 -0.107136 -0.175712 -0.053401 -0.014402 0.028768 0.004994 0.065289 -0.065586 0.133657 0.096130 0.360050 -0.244891 -0.175055 0.058390 -0.070271 0.244015 0.030854 0.061426 -0.117739 0.025100 0.102966 0.022052 0.153966 0.042296 -0.206995 0.047021 0.054101 0.325418 0.268050 -0.133703 -0.328773 0.148802 0.226372 -0.391442 -0.001961 0.265831 -0.203682 0.207870 0.270051 -0.039882 -0.266164 -0.490787 0.204999 -0.005519 -0.120588 -0.302506 0.099316 -0.064586 -0.362918 0.016194 -0.123312 0.037491 -0.023676 -0.067174 0.051558 -0.093620 -0.024064 -0.086400 -0.146209 0.284645 0.020151 -0.022750 -0.077837 0.012467 -0.067132 0.026812 0.091576 -0.088898 -0.286064 -0.199334 0.237132 0.016801 0.259264 -0.031047 -0.187446 0.267013 0.105005 0.197519 -0.001880 0.083565 -0.379534 0.091086 -0.250435 -0.341755 0.084072 0.356437 -0.144050 0.203821 -0.409862 -0.210922 -0.047993 0.138944 0.583450 0.391187 -0.020445 0.361983 0.097366 0.237431 0.245357 0.064270 -0.187955 0.124199 0.240733 -0.124678 -0.052131 -0.033304 0.176772 -0.000171 -0.217892 -0.262098 -0.333780 0.114244 -0.089427 0.041136
34 -0.195083 -0.216284 0.118913 0.203395 0.287547 -0.279228 0.271909 0.188826 0.185166 0.077170 0.098791 0.211194 -0.064341 -0.233210 -0.115433 -0.130239 -0.043512 -0.017131 0.062753 -0.023498 0.088779 -0.076862 0.094111 0.134840 0.350956 -0.276312 -0.114384 0.043096 -0.030803 0.261211 0.041543 0.067012 -0.149813 -0.041806 0.077635 -0.005202 0.213858 0.014032 -0.148479 0.030634 0.015457 0.335790 0.280879 -0.153177 -0.297391 0.121362 0.250713 -0.312539 0.007364 0.236494 -0.131430 0.236958 0.280788 -0.058113 -0.267489 -0.480154 0.182003 -0.025206 -0.099547 -0.247422 0.118507 -0.148453 -0.299135 0.074944 -0.105387 0.039852 0.011486 -0.044712 0.038788 -0.098471 0.043012 -0.094096 -0.211522 0.377189 0.001082 0.028131 -0.085093 0.040497 -0.097383 0.057924 0.102697 -0.126559 -0.239000 -0.266163 0.167936 0.020523 0.257726 0.023855 -0.168735 0.242405 0.109750 0.252117 -0.035113 0.068414 -0.417377 0.085876 -0.241929 -0.309468 0.101495 0.348368 -0.157252 0.235145 -0.402933 -0.205499 -0.050935 0.050769 0.564129 0.341952 0.038652 0.336651 0.105962 0.232176 0.200563 0.062570 -0.201676 0.178787 0.240936 -0.066791 -0.071717 -0.010077 0.200115 -0.048452 -0.124221 -0.289233 -0.332994 0.140193 -0.116634 0.057373
51 -0.037558 -0.342514 0.071140 0.311618 0.145914 -0.265134 0.290015 0.235754 0.168919 0.120137 0.102082 0.264129 0.013053 -0.205332 -0.087381 -0.139603 0.000123 0.042784 0.060018 -0.020522 0.026570 -0.158133 -0.027518 0.176065 0.462021 -0.178680 -0.070538 0.159085 0.004957 0.256444 -0.063548 0.018498 -0.145552 -0.018069 0.067405 0.021715 0.265002 -0.044991 -0.124224 -0.081425 0.042518 0.295982 0.383671 -0.106842 -0.272130 0.101598 0.247069 -0.399124 -0.055257 0.178723 -0.150912 0.288881 0.217763 -0.115518 -0.186335 -0.386302 0.155505 -0.032390 -0.058666 -0.262589 0.123895 -0.304316 -0.280718 0.095192 -0.172291 -0.048199 -0.210843 0.099215 0.006943 -0.098563 -0.028400 -0.103870 -0.187352 0.222952 -0.068972 -0.019931 0.089658 -0.014734 -0.093170 0.097699 0.126988 -0.221031 -0.219578 -0.159529 0.158201 -0.051305 0.320282 0.149014 -0.196505 0.273364 0.101002 0.156209 -0.076157 0.096401 -0.370908 0.071745 -0.277407 -0.346872 0.024812 0.410815 -0.130214 0.296456 -0.348264 -0.267034 -0.105116 0.114869 0.543601 0.398001 -0.010877 0.467971 0.203167 0.093830 0.126368 -0.060322 -0.150827 0.094936 0.109333 -0.098188 -0.176490 0.059296 0.192821 -0.088944 -0.033282 -0.137070 -0.255985 0.074910 -0.145935 0.105754
1 -0.118043 -0.300067 0.047172 0.088820 0.128508 -0.293807 0.238251 0.218996 0.130975 0.131492 0.007258 0.244226 0.113202 -0.165563 -0.070785 -0.144079 -0.025725 0.098901 0.067266 0.035804 -0.003819 -0.044240 0.141496 0.150161 0.312349 -0.090403 -0.016461 0.259482 0.134615 0.313544 0.049934 -0.038316 -0.179038 -0.046620 0.051483 -0.019960 0.180779 0.005957 -0.084000 0.005080 0.158085 0.166709 0.260238 -0.105225 -0.276730 0.250148 0.237857 -0.177672 0.014208 0.031920 -0.173590 0.197109 0.173749 0.001589 -0.305798 -0.254284 0.147122 0.061071 -0.193653 -0.070459 0.063993 -0.262763 -0.247486 0.151651 -0.101421 0.087518 -0.044626 0.021661 0.096895 0.000165 -0.003031 0.014543 0.036612 0.095650 0.158306 -0.021609 0.112856 -0.047429 0.029814 0.089260 0.040923 -0.190331 -0.255339 -0.156553 0.025363 0.041026 0.296937 0.044349 -0.037589 0.106961 0.134722 0.139860 0.065586 0.053899 -0.417530 0.048830 -0.242241 -0.205871 0.021056 0.272905 -0.261224 0.300238 -0.349227 -0.130009 -0.031562 0.156293 0.421179 0.305016 -0.096141 0.306585 0.077951 0.140609 0.198150 -0.027339 -0.203770 -0.000207 -0.056629 -0.051267 -0.183474 -0.076994 0.048254 -0.184361 -0.031411 -0.080820 -0.169746 0.088149 -0.210509 0.164838
37 -0.142459 -0.319868 -0.009763 0.091159 0.135015 -0.319171 0.238360 0.265205 0.095885 0.226798 0.032979 0.276015 0.149278 -0.178060 -0.001741 -0.131263 0.013542 0.172629 0.072527 0.087373 0.007625 -0.046758 0.188313 0.118284 0.396987 -0.027648 -0.033659 0.250510 0.166730 0.336678 0.064452 -0.076102 -0.178957 -0.048901 0.090826 -0.031873 0.169849 -0.031376 -0.162165 0.059753 0.242974 0.221132 0.287627 -0.107168 -0.253097 0.383261 0.241112 -0.194775 0.040915 -0.080688 -0.116700 0.150550 0.160682 0.051511 -0.361577 -0.194398 0.235830 0.086697 -0.261947 -0.113408 0.091440 -0.235455 -0.292999 0.197310 -0.081878 0.086469 -0.114731 0.008693 0.218733 0.089005 -0.042203 0.072475 0.139415 0.103281 0.212494 0.000444 0.077334 0.031161 0.119345 0.170751 -0.005576 -0.162582 -0.258577 -0.114421 0.006366 0.013361 0.328267 -0.009844 -0.032462 0.169223 0.161086 0.144824 0.099358 -0.003970 -0.426283 0.003955 -0.240074 -0.212377 -0.022439 0.207009 -0.294541 0.342842 -0.316314 -0.066226 -0.053539 0.226436 0.361970 0.338762 -0.120891 0.334476 0.169451 0.165484 0.284282 0.011840 -0.220601 -0.019108 -0.127049 -0.121987 -0.132570 -0.125529 0.047453 -0.229718 -0.016835 0.006797 -0.132724 0.031020 -0.212165 0.254204
